{
    "layers": [
        {
            "name": "input",
            "type": "input",
            "size": 36
        },
        {
            "name": "blstm_level_0",
            "type": "blstm",
            "size": 50,
            "bias": 1
        },
        {
            "name": "output",
            "type": "softmax",
            "size": 14,
            "bias": 1
        },
        {
            "name": "postoutput",
            "type": "multiclass_classification",
            "size": 14
        }
    ],
    "weights": {
        "blstm_level_0": {
            "input": [
                0.965128,
                -1.71648,
                0.382327,
                -1.22464,
                1.50357,
                -1.76021,
                -0.406188,
                1.38411,
                -0.147768,
                1.70136,
                -0.624821,
                1.33949,
                1.03011,
                -0.230875,
                -1.28562,
                1.023,
                0.399283,
                -0.103704,
                0.257013,
                0.249566,
                0.28622,
                -1.05752,
                0.994952,
                -0.948169,
                0.143802,
                -1.2566,
                -1.03353,
                1.7463,
                -0.428325,
                -0.608186,
                -0.83553,
                2.52216,
                -0.333463,
                0.627379,
                -1.82113,
                -1.90306,
                0.0961168,
                -1.51043,
                1.16872,
                -1.9096,
                1.0517,
                3.12712,
                -0.961992,
                1.0971,
                0.918672,
                -0.183016,
                -1.88916,
                -1.31069,
                -1.0268,
                0.284075,
                0.597544,
                -0.201239,
                -0.0976043,
                0.318914,
                -1.13372,
                -0.286985,
                -0.066381,
                0.0600863,
                -0.397711,
                -0.0524697,
                -0.241775,
                1.09409,
                0.272138,
                -0.545365,
                0.831595,
                -0.745978,
                1.51858,
                -1.23456,
                0.786039,
                0.981488,
                1.21088,
                -1.04837,
                -1.36619,
                3.47977,
                -1.46308,
                -0.990029,
                0.986687,
                -1.02033,
                -1.46596,
                0.309671,
                -0.416938,
                1.0978,
                1.75479,
                -0.773271,
                -1.15392,
                0.10945,
                -0.30456,
                -0.17242,
                -2.37681,
                0.883651,
                0.454946,
                -0.382713,
                -0.0782162,
                -0.664455,
                -0.113197,
                -1.84099,
                0.636032,
                -0.14807,
                -1.35103,
                2.56243,
                0.864622,
                0.398927,
                -0.916189,
                1.92754,
                0.972295,
                -0.126675,
                -0.262824,
                1.42353,
                -0.505115,
                1.10974,
                0.471008,
                -0.349644,
                0.437461,
                -0.919575,
                0.332017,
                -1.47261,
                0.766612,
                -0.251843,
                -0.452264,
                0.651792,
                0.00422857,
                -0.716941,
                -0.233039,
                0.391798,
                0.868675,
                0.0858433,
                0.297321,
                0.631341,
                0.688095,
                -0.349542,
                0.639526,
                0.470043,
                0.58433,
                -1.84209,
                0.371765,
                -0.303645,
                -0.173235,
                -0.499376,
                0.438698,
                0.364448,
                0.65736,
                0.234564,
                -1.43145,
                0.319525,
                -0.0323047,
                -1.97219,
                0.0661587,
                -1.13225,
                -0.496496,
                -0.067361,
                -1.33683,
                0.980321,
                -0.367906,
                -0.31996,
                1.04337,
                0.116147,
                0.655639,
                1.64805,
                0.202907,
                0.363573,
                0.178411,
                1.39952,
                0.0409491,
                0.655316,
                0.495373,
                0.892527,
                0.680611,
                0.46265,
                1.26043,
                -0.119901,
                1.06646,
                -0.637962,
                -0.785929,
                0.320954,
                -1.50113,
                -2.00792,
                0.860965,
                -0.384262,
                -0.750702,
                -1.13334,
                -0.404184,
                0.260429,
                -1.90648,
                1.48608,
                -0.739967,
                -0.908577,
                0.725694,
                1.7022,
                0.0475688,
                -0.816624,
                0.777912,
                -0.741398,
                -0.0966386,
                0.631438,
                -0.831779,
                0.598178,
                0.130093,
                0.538439,
                0.339782,
                -1.31388,
                -0.0690243,
                -0.703601,
                1.49477,
                0.841941,
                -0.0942279,
                -0.115098,
                0.539876,
                0.517696,
                0.257191,
                0.470538,
                1.21753,
                1.25973,
                -0.83263,
                0.961821,
                -2.70947,
                -0.884493,
                0.012622,
                0.807422,
                -0.465411,
                -0.726191,
                0.0622254,
                0.315513,
                1.23527,
                -0.599681,
                -0.895256,
                -0.370546,
                -0.953708,
                0.427115,
                0.140348,
                1.08349,
                0.0658601,
                -0.317455,
                -1.04252,
                0.390561,
                -1.05373,
                0.00658314,
                0.716003,
                -0.472986,
                -0.357804,
                0.205202,
                -0.470027,
                1.74938,
                -0.333,
                0.289764,
                0.329526,
                0.154847,
                -0.517625,
                0.224424,
                0.400682,
                -1.08301,
                0.477997,
                0.642491,
                -1.58073,
                -0.376201,
                1.25438,
                0.188389,
                0.729861,
                -0.101946,
                1.42738,
                -1.15713,
                -0.456204,
                1.31799,
                0.580574,
                0.108657,
                -0.187762,
                0.0174539,
                -0.542496,
                -0.683254,
                2.83115,
                0.16386,
                -0.793338,
                0.334719,
                -0.0370148,
                -0.0787427,
                -0.747267,
                -0.814038,
                -0.313683,
                -0.857573,
                1.02705,
                -0.918325,
                -0.311083,
                0.645191,
                0.454311,
                0.00752232,
                1.44501,
                1.34338,
                -2.59152,
                -1.33041,
                -0.399144,
                0.426017,
                -0.445587,
                -1.5085,
                0.5968,
                0.0127066,
                1.17936,
                -0.346284,
                -0.966537,
                1.1788,
                -1.89683,
                0.580616,
                -0.186617,
                0.922936,
                0.357594,
                -0.60081,
                1.25162,
                1.17768,
                0.770479,
                -1.3402,
                -0.637557,
                -0.385243,
                -0.710916,
                0.65322,
                -1.07413,
                -0.0159769,
                0.837437,
                -0.709762,
                1.71917,
                1.56354,
                -2.99156,
                1.67291,
                1.44741,
                -1.12986,
                0.408216,
                -0.399315,
                -0.148624,
                -0.0292808,
                0.474201,
                -1.35314,
                0.236744,
                -0.168073,
                0.103573,
                -0.543548,
                2.742,
                0.567792,
                -0.949518,
                -0.180954,
                0.275184,
                0.0118352,
                0.713984,
                -0.890439,
                -2.87915,
                0.591123,
                -0.145407,
                0.57302,
                1.36906,
                0.999856,
                0.59632,
                0.698888,
                1.45785,
                0.0369134,
                -0.684298,
                0.443311,
                -1.05039,
                1.07668,
                -1.40009,
                0.484146,
                0.146973,
                -0.652924,
                -0.920047,
                -1.89377,
                -0.850934,
                0.667864,
                -0.866139,
                -0.430314,
                -0.654029,
                -0.841502,
                0.191723,
                -0.896859,
                -0.549095,
                -0.964711,
                -0.495906,
                -0.595016,
                0.350292,
                -0.707079,
                -0.875152,
                -0.415988,
                -0.253437,
                0.450313,
                -0.736149,
                -0.387752,
                0.208114,
                -0.245993,
                -0.119427,
                0.128094,
                -0.601294,
                -0.471613,
                2.38833,
                1.25214,
                -0.851324,
                -0.383417,
                0.611791,
                1.19791,
                3.35227,
                -0.288391,
                2.56466,
                -1.10285,
                -1.1172,
                -2.48508,
                -1.16062,
                -0.771883,
                0.741534,
                0.125456,
                0.35816,
                0.0967488,
                0.953752,
                -2.10042,
                2.55556,
                1.00039,
                0.274111,
                0.336847,
                -0.795342,
                0.679628,
                0.0459318,
                0.728612,
                1.1482,
                -0.700715,
                0.571728,
                0.0775913,
                -0.175911,
                -0.983461,
                -0.05666,
                -0.568614,
                -0.879464,
                -0.0105125,
                0.996368,
                1.57395,
                -1.3179,
                1.78104,
                -1.16847,
                0.115907,
                -1.09669,
                1.40697,
                -0.10476,
                1.08612,
                -1.98614,
                2.27314,
                -0.163587,
                1.348,
                -0.547109,
                1.68112,
                0.731878,
                0.257639,
                -0.479274,
                0.335017,
                -0.481171,
                -0.176945,
                0.0413868,
                -0.108214,
                -1.87694,
                -0.893803,
                0.502294,
                0.0113894,
                0.019504,
                -0.026474,
                -0.359722,
                0.280549,
                0.176442,
                0.871859,
                1.05762,
                -1.2281,
                0.0710757,
                1.02852,
                -0.0522903,
                0.690071,
                -1.16263,
                0.171158,
                -0.8277,
                -1.50615,
                0.65785,
                -1.28213,
                -0.762614,
                1.32532,
                -0.0786218,
                -0.633313,
                -1.05659,
                -0.245872,
                -0.04122,
                1.63597,
                -0.8194,
                0.789199,
                1.37998,
                0.297463,
                0.218191,
                0.612813,
                -0.0810665,
                0.388181,
                0.556658,
                0.806864,
                0.92666,
                0.327315,
                1.44218,
                -1.16035,
                0.724068,
                -0.138374,
                -0.161662,
                -1.07944,
                1.4033,
                -3.80552,
                -0.466038,
                0.694138,
                1.54545,
                -1.50684,
                0.262544,
                -2.04403,
                0.290775,
                1.04645,
                1.70547,
                -1.00048,
                0.428328,
                0.840397,
                0.03125,
                1.11649,
                -0.256416,
                -0.463122,
                0.520386,
                1.05029,
                -0.180351,
                -1.16417,
                0.213252,
                -1.38746,
                -1.54801,
                -0.698131,
                -1.34821,
                -0.39176,
                0.0826365,
                -0.320561,
                1.13241,
                0.316782,
                -0.430096,
                1.07837,
                -0.585906,
                -1.14705,
                0.834213,
                -1.51129,
                -0.107292,
                -0.589909,
                0.821328,
                0.437692,
                0.492083,
                1.01374,
                0.519644,
                -0.420422,
                0.536096,
                -0.854327,
                0.40696,
                0.244672,
                2.18385,
                1.39301,
                -0.0173047,
                0.638366,
                1.70764,
                0.281761,
                0.293128,
                0.0583691,
                -1.50529,
                1.05625,
                -0.164869,
                0.112822,
                -0.352241,
                -0.22173,
                -0.245556,
                0.304391,
                -0.950549,
                -0.582212,
                -0.23814,
                -0.976363,
                -0.266975,
                -0.414364,
                -0.543129,
                -0.405445,
                -0.120857,
                0.0545918,
                -1.13134,
                -1.45814,
                0.816006,
                -0.719135,
                0.317898,
                0.995579,
                -1.03345,
                0.155058,
                -0.119703,
                0.920546,
                -0.585494,
                0.32953,
                0.157839,
                -0.188001,
                -1.68965,
                -0.62099,
                -0.749191,
                1.47566,
                -0.381932,
                0.652281,
                -0.523164,
                0.585178,
                0.366868,
                -0.0475047,
                0.256232,
                -0.675223,
                1.13975,
                -0.795914,
                -0.243167,
                -1.07479,
                1.14298,
                -0.432262,
                -1.42482,
                0.723209,
                0.887776,
                -2.66011,
                -1.41003,
                1.48781,
                1.20825,
                1.90329,
                0.153861,
                -1.37152,
                1.65746,
                0.367542,
                -0.401967,
                2.43542,
                0.223872,
                -0.0263666,
                1.23831,
                -0.135193,
                -1.42005,
                0.281038,
                -0.1192,
                0.490465,
                -1.46119,
                0.713532,
                2.02731,
                -0.792802,
                0.700616,
                -1.03129,
                -1.14706,
                -0.6086,
                0.266462,
                0.503932,
                0.228163,
                -0.748746,
                1.8066,
                -0.851128,
                0.0712193,
                -2.73196,
                -1.21946,
                -1.76536,
                -0.426451,
                1.18251,
                0.0504158,
                0.777828,
                -1.35214,
                -0.0717981,
                0.994236,
                -0.829285,
                0.405749,
                -3.20088,
                -0.886616,
                -1.92561,
                -0.052851,
                1.5085,
                -2.22784,
                1.26836,
                0.938304,
                -0.283218,
                1.00987,
                1.43683,
                1.11324,
                2.29659,
                0.999046,
                1.5246,
                0.786759,
                1.06298,
                0.0181765,
                1.04199,
                1.24718,
                -0.266407,
                -0.43309,
                -0.886034,
                0.649256,
                -0.862497,
                -0.533866,
                -3.18378,
                0.768551,
                -1.16248,
                -0.749209,
                0.396126,
                -0.386352,
                0.630737,
                0.667685,
                1.70653,
                0.248827,
                -0.454894,
                -0.512147,
                -0.939852,
                0.225823,
                1.23271,
                -1.6884,
                -0.280286,
                0.466739,
                -0.746659,
                0.389526,
                -0.0148796,
                1.11406,
                -0.0815882,
                0.832697,
                0.114277,
                0.605079,
                0.750602,
                0.46103,
                -0.16644,
                0.536029,
                -0.682701,
                0.360931,
                0.306414,
                0.00698079,
                -1.31933,
                -0.232142,
                -1.56124,
                -0.481222,
                -0.205303,
                -0.156519,
                -1.60129,
                0.28732,
                0.76615,
                0.433017,
                -1.09652,
                0.263362,
                -4.72386,
                1.24702,
                0.659577,
                1.44821,
                -2.21908,
                0.36947,
                1.67469,
                0.843805,
                -0.293674,
                1.00057,
                -0.32146,
                1.31834,
                -0.788771,
                -0.243084,
                -0.489277,
                -0.699932,
                -0.476143,
                -0.471156,
                1.70583,
                -0.702107,
                0.404737,
                1.32281,
                0.785929,
                0.872105,
                0.0267597,
                -2.63112,
                0.234348,
                -1.01423,
                0.459111,
                -0.0157367,
                0.982559,
                -1.2205,
                1.90798,
                -3.4113,
                1.84101,
                -1.18845,
                -3.87834,
                -0.266939,
                -2.20275,
                -0.478105,
                1.05251,
                1.33579,
                0.622188,
                1.06234,
                0.825248,
                0.0780688,
                0.0637835,
                0.639574,
                -0.0408328,
                0.532601,
                0.440019,
                0.219114,
                1.2302,
                0.305133,
                -0.320978,
                0.0754689,
                0.790391,
                1.91724,
                1.16826,
                1.48393,
                -0.10502,
                2.42711,
                -0.0407934,
                -0.713263,
                -1.87816,
                -1.81548,
                -1.06157,
                -0.106573,
                -1.0871,
                0.11796,
                0.182988,
                0.206304,
                -0.120352,
                0.412281,
                0.27671,
                0.00704497,
                0.115215,
                0.905068,
                0.158544,
                0.0866883,
                -0.378101,
                0.486389,
                -0.139754,
                -0.504652,
                -0.211355,
                -0.327362,
                0.281948,
                -0.0898433,
                0.0124594,
                -0.031302,
                0.223337,
                -0.342375,
                0.186758,
                -1.1811,
                0.343012,
                -0.0195003,
                -0.146171,
                0.454137,
                0.399961,
                -0.304028,
                0.115091,
                0.63,
                -0.144637,
                -1.07748,
                1.09216,
                -0.0495639,
                1.70046,
                0.616739,
                -1.60583,
                0.311519,
                -0.157526,
                1.42009,
                -1.43559,
                1.78209,
                -0.41736,
                0.317568,
                0.484438,
                -0.136961,
                -1.75954,
                2.22828,
                0.114363,
                -0.0126472,
                0.159126,
                0.856316,
                0.530587,
                0.253784,
                -0.966301,
                -0.0893358,
                -0.362374,
                -0.466648,
                0.615646,
                0.670477,
                -0.129628,
                -2.7474,
                1.33363,
                -1.28571,
                -1.43959,
                -0.622831,
                -0.1689,
                -0.388929,
                0.575653,
                -1.57334,
                0.441017,
                0.462541,
                -1.81632,
                -0.335182,
                1.19143,
                1.20403,
                -1.06366,
                -0.873665,
                0.720264,
                -0.395225,
                1.46797,
                1.46682,
                0.260633,
                -1.7649,
                -0.124162,
                0.535134,
                0.643588,
                1.42436,
                0.427468,
                -0.139224,
                0.467962,
                0.542238,
                0.559004,
                0.504296,
                0.772755,
                0.0713745,
                -3.08192,
                -0.112195,
                1.4882,
                -1.1937,
                -1.64092,
                -1.33125,
                1.60641,
                -0.136575,
                -0.663392,
                0.141692,
                1.38781,
                0.718308,
                -0.574252,
                -0.138896,
                -0.3584,
                -2.71225,
                -1.24831,
                -0.188389,
                0.000938218,
                0.939688,
                -0.185669,
                -1.39567,
                0.362391,
                -1.9121,
                0.435053,
                1.51485,
                -0.493219,
                0.244409,
                -0.880701,
                0.152305,
                0.697527,
                -0.393335,
                0.52375,
                -0.140559,
                1.61422,
                -0.21417,
                1.86473,
                0.703722,
                -1.81793,
                -0.622097,
                -0.912354,
                1.14126,
                1.90606,
                -1.06475,
                -1.86343,
                -0.024033,
                1.80749,
                -1.51802,
                -1.14869,
                1.03515,
                -0.771301,
                1.95957,
                -0.448708,
                0.661335,
                0.0127518,
                0.473524,
                0.297634,
                -0.39014,
                0.183381,
                1.27789,
                0.779964,
                0.40538,
                0.00127326,
                0.876642,
                0.0476303,
                -0.491998,
                -0.613554,
                0.22557,
                -0.0445214,
                0.240941,
                -0.243047,
                0.194388,
                -0.96112,
                1.18462,
                -2.12775,
                -0.696982,
                0.943254,
                -2.2625,
                1.34626,
                0.810654,
                0.419571,
                -0.712176,
                0.549412,
                -0.935055,
                -1.49831,
                0.567296,
                -0.848149,
                -1.36182,
                0.563079,
                2.0168,
                -0.556692,
                0.0361141,
                -0.515534,
                -0.0766025,
                0.327752,
                0.139505,
                1.21572,
                -0.16466,
                1.16183,
                -0.478191,
                0.94121,
                0.622977,
                1.12346,
                -0.0937101,
                0.410795,
                -0.546997,
                -0.896729,
                0.750658,
                -1.1852,
                1.07861,
                0.610976,
                0.0498206,
                -0.106533,
                -2.88178,
                0.312426,
                -0.147303,
                0.0790364,
                -0.994681,
                -0.0354972,
                -0.0323053,
                -2.39056,
                -1.79878,
                -0.73108,
                0.49943,
                0.0500615,
                0.594874,
                0.315482,
                0.265197,
                0.646458,
                0.835137,
                -0.424919,
                0.0144663,
                0.198647,
                0.0532676,
                0.423247,
                1.43688,
                0.760412,
                0.329107,
                0.412393,
                -0.63562,
                0.800307,
                -0.141155,
                0.81461,
                -0.113672,
                -0.808007,
                1.0408,
                0.0755664,
                -0.26852,
                0.865211,
                -0.156346,
                -2.65526,
                0.133227,
                0.503145,
                -0.553767,
                0.190218,
                0.0726077,
                0.114713,
                0.623569,
                -0.125946,
                -0.58639,
                0.0225718,
                1.0336,
                -0.277039,
                0.0379434,
                -0.281955,
                -0.06033,
                0.139883,
                0.457237,
                -0.0881189,
                -0.104392,
                -1.02194,
                -0.553377,
                0.114658,
                0.0229575,
                -0.247844,
                -0.101578,
                0.542074,
                1.08187,
                -0.863457,
                -0.448788,
                -1.65646,
                0.560444,
                -0.549208,
                0.463606,
                0.166906,
                -0.621449,
                1.28243,
                1.72645,
                -1.14778,
                2.09782,
                -1.08976,
                -0.78539,
                -0.227348,
                0.95468,
                -1.14112,
                -1.65511,
                0.268364,
                1.3552,
                0.807603,
                -0.126215,
                1.62289,
                -1.06709,
                1.06119,
                -1.51322,
                0.533338,
                0.745052,
                0.190516,
                1.06582,
                -0.288784,
                1.43349,
                -0.618733,
                0.257066,
                -0.142129,
                -0.717344,
                0.269686,
                -0.520444,
                -0.597248,
                -0.356613,
                -2.2326,
                1.00426,
                1.44844,
                -1.4893,
                -0.169567,
                0.61759,
                -0.733895,
                1.52538,
                -0.775013,
                -1.66457,
                3.48851,
                0.277749,
                3.80259,
                -0.618406,
                -1.29514,
                -1.26017,
                0.212691,
                -0.409991,
                1.71194,
                -0.0913337,
                -0.720856,
                1.85781,
                -0.488662,
                0.0739852,
                -0.0438395,
                -0.258758,
                0.227126,
                -0.718751,
                0.207249,
                -0.426862,
                -1.64042,
                -1.52337,
                -1.93788,
                -1.09834,
                0.16276,
                1.21457,
                -1.06274,
                -0.565048,
                2.67754,
                0.207867,
                0.539284,
                1.69879,
                0.0842561,
                -0.672867,
                -1.0883,
                -0.88269,
                2.71195,
                -1.69459,
                2.39921,
                -0.340305,
                -0.208276,
                0.0517434,
                -0.373972,
                -0.736534,
                0.282511,
                -0.182007,
                0.0583598,
                0.859169,
                0.465061,
                -1.01333,
                0.331577,
                -0.211794,
                -0.303153,
                -0.904482,
                -0.187451,
                -0.741197,
                0.401122,
                0.573729,
                -0.363972,
                0.587818,
                -1.4447,
                -2.34173,
                -0.991065,
                1.18932,
                2.80427,
                -0.259407,
                -0.87947,
                0.0239914,
                0.453125,
                -0.665237,
                -0.065772,
                0.582733,
                0.660081,
                0.721026,
                -0.0278314,
                -0.282198,
                -0.536739,
                0.234359,
                0.444045,
                0.451875,
                -0.332534,
                -0.106012,
                -0.413453,
                -0.941858,
                -0.12082,
                -0.745735,
                -1.56037,
                0.546589,
                0.576652,
                0.102671,
                -0.8918,
                -0.155306,
                0.151095,
                -0.272587,
                0.802757,
                -1.10051,
                -1.11584,
                0.714678,
                1.37782,
                -0.703044,
                1.02333,
                1.28376,
                -0.250788,
                1.38552,
                -0.909765,
                -0.477101,
                0.354061,
                0.515881,
                0.410476,
                0.701755,
                0.298005,
                0.462027,
                -0.33873,
                -0.875039,
                -0.706441,
                -0.0432773,
                1.05073,
                -0.0672741,
                0.206226,
                0.642426,
                0.346532,
                -0.374392,
                -0.402839,
                -0.248162,
                0.124896,
                0.399114,
                0.256603,
                0.143121,
                -0.498938,
                -1.06322,
                -1.3488,
                0.233089,
                -1.31561,
                -0.456887,
                -1.13889,
                0.357584,
                -0.440092,
                2.9074,
                0.676387,
                0.131278,
                0.0298085,
                0.10901,
                0.231434,
                0.357905,
                -1.02884,
                0.24883,
                -0.643463,
                -0.751395,
                -0.194485,
                -0.621724,
                -1.09885,
                0.282489,
                -0.263196,
                0.474286,
                0.690499,
                -2.24191,
                0.384022,
                -0.912646,
                0.162822,
                -0.00595182,
                0.352496,
                -0.0858064,
                -0.329489,
                -0.523612,
                0.399435,
                0.716236,
                0.554269,
                -0.470237,
                0.255374,
                1.04348,
                0.728161,
                1.01227,
                0.824508,
                0.0770373,
                0.58419,
                0.165162,
                0.0372097,
                0.525758,
                0.281399,
                -0.379618,
                -1.24496,
                -0.340591,
                -0.286393,
                -0.501228,
                -0.0688849,
                -1.42157,
                0.777979,
                1.00338,
                -0.353676,
                -0.772183,
                0.206999,
                -0.503908,
                0.989474,
                0.232715,
                0.488801,
                -0.369895,
                -0.504327,
                -0.47051,
                0.664698,
                -0.0567631,
                0.109408,
                0.800344,
                -0.641533,
                0.0237772,
                0.51143,
                0.0585026,
                -0.949402,
                -0.291758,
                -0.369491,
                -0.561278,
                2.0069,
                -1.06955,
                1.78977,
                1.04331,
                1.20995,
                -0.738107,
                -1.94155,
                -0.293803,
                -0.362339,
                -0.630855,
                -0.570306,
                -0.941082,
                1.55919,
                0.707768,
                -0.799327,
                0.382929,
                0.344123,
                0.839845,
                -0.330277,
                -0.756234,
                -0.181851,
                0.331091,
                0.105382,
                0.465173,
                1.00049,
                -0.151233,
                0.587414,
                1.90247,
                -1.04876,
                0.162522,
                1.81942,
                -1.5924,
                -1.85028,
                -2.5416,
                1.89015,
                1.69556,
                -0.695939,
                2.10386,
                0.667882,
                -0.0654054,
                -1.90514,
                -0.100758,
                2.75422,
                -1.53112,
                2.58144,
                0.721359,
                -1.62753,
                2.49759,
                0.0716516,
                0.0127521,
                -1.32989,
                0.706627,
                -0.858782,
                -0.874917,
                0.160771,
                -0.32513,
                0.0212381,
                0.639769,
                0.641932,
                -1.53818,
                -0.338297,
                -0.589391,
                -0.137725,
                -0.0703784,
                0.710228,
                0.245471,
                -1.09609,
                -1.00341,
                -2.28556,
                -0.651369,
                2.0627,
                0.91796,
                -0.446448,
                0.106674,
                0.622918,
                2.63679,
                -1.85085,
                -0.300857,
                3.22781,
                1.5766,
                0.590409,
                0.390941,
                -1.24152,
                -1.49679,
                -1.71538,
                -0.325899,
                -0.796862,
                -0.940214,
                -0.145686,
                -0.693679,
                -0.241895,
                -0.351556,
                -0.91104,
                0.769156,
                -1.20083,
                0.165951,
                0.17053,
                0.303152,
                0.883523,
                -0.282364,
                -1.03334,
                -1.38657,
                -1.18785,
                0.481152,
                -1.01603,
                -3.4466,
                3.41342,
                0.173409,
                3.92422,
                -0.241835,
                -0.210505,
                -0.491994,
                -1.13371,
                0.600495,
                -0.870645,
                -0.246235,
                -0.944304,
                1.01209,
                0.84433,
                -0.162264,
                0.744772,
                0.210721,
                -0.763709,
                -0.881924,
                0.659097,
                -0.45165,
                -0.13924,
                0.869667,
                0.110658,
                -1.41192,
                -0.0479705,
                0.383633,
                1.30402,
                -0.00863793,
                1.34051,
                0.567096,
                -1.19778,
                0.641598,
                -0.467713,
                -0.519677,
                -0.318111,
                -0.584211,
                0.405689,
                2.18529,
                0.770771,
                -0.472389,
                -0.392056,
                -0.761913,
                -1.36456,
                1.17353,
                0.939419,
                -1.01197,
                -0.874312,
                0.0200939,
                -0.317946,
                0.837946,
                -0.857908,
                0.850641,
                1.93664,
                0.067064,
                -1.11671,
                1.02156,
                -0.0306728,
                -0.463925,
                1.63441,
                0.0777662,
                -0.147181,
                -0.369286,
                -2.44699,
                -0.191096,
                1.19589,
                -0.0760661,
                0.290613,
                -0.630212,
                2.82057,
                -1.07496,
                -0.784243,
                -1.15898,
                1.69048,
                0.554773,
                0.0200026,
                -0.00751438,
                -0.176039,
                -0.545583,
                1.0163,
                -0.683412,
                -0.606454,
                1.68826,
                -0.445333,
                -1.19018,
                -0.570926,
                -1.46204,
                -0.239373,
                -1.44632,
                -0.344234,
                -0.165017,
                -0.153168,
                1.12565,
                -0.159994,
                -0.495902,
                -0.979673,
                0.520014,
                -0.77842,
                -1.06818,
                0.738779,
                0.881301,
                -1.15441,
                2.09957,
                -0.618338,
                -1.68223,
                1.13361,
                1.98432,
                1.03137,
                2.85914,
                -1.15031,
                0.493979,
                0.255058,
                -1.89486,
                -0.45366,
                2.10934,
                -2.00398,
                0.250942,
                3.00701,
                -0.303303,
                -2.44827,
                -0.556076,
                0.364568,
                -0.429436,
                -0.857332,
                -0.889113,
                -0.901541,
                1.73915,
                -0.736424,
                0.361249,
                0.00785499,
                1.24567,
                -1.06101,
                1.01756,
                0.123269,
                -1.09071,
                -0.913616,
                0.28427,
                0.343463,
                0.474211,
                -1.03747,
                -0.356346,
                0.464431,
                -1.10554,
                -1.25766,
                1.50349,
                2.28158,
                0.0721777,
                1.62821,
                -0.783664,
                -1.35582,
                0.174716,
                -0.452165,
                2.09715,
                2.9046,
                -1.67214,
                -1.02206,
                0.108534,
                -0.0121095,
                -2.28763,
                -0.121505,
                -0.702973,
                0.591752,
                -0.0362098,
                0.668853,
                -0.471619,
                1.57128,
                -0.06054,
                1.97251,
                1.20076,
                0.860671,
                -0.225813,
                -0.889968,
                0.904412,
                -0.40112,
                -0.00588796,
                -1.03615,
                -0.645914,
                -0.882622,
                1.52745,
                -1.0863,
                -1.59117,
                1.56101,
                1.83843,
                -2.58529,
                0.520815,
                -0.200123,
                -0.932513,
                -0.618039,
                -1.16029,
                -0.635062,
                -0.188902,
                0.699011,
                0.144447,
                -0.382165,
                0.926814,
                0.55537,
                0.97188,
                0.549343,
                0.0890982,
                1.60211,
                1.11174,
                1.57122,
                1.42889,
                0.224517,
                0.769298,
                -0.0306179,
                1.30823,
                -0.124139,
                1.03077,
                -0.0557484,
                -0.830211,
                -0.229575,
                0.0393566,
                -0.561593,
                0.907594,
                -1.31204,
                -1.66672,
                -1.37059,
                -2.28401,
                -0.30664,
                0.476846,
                0.930466,
                -0.681494,
                1.69008,
                -0.783338,
                -3.25647,
                1.07053,
                -2.53414,
                0.066989,
                0.49325,
                2.31699,
                -0.730105,
                -0.274994,
                0.0899218,
                0.339542,
                0.189747,
                0.553571,
                0.269117,
                0.0696711,
                0.585062,
                0.221651,
                1.42468,
                -0.138806,
                -1.20891,
                0.558681,
                -0.0604733,
                1.36676,
                0.261468,
                -0.352321,
                3.21598,
                -0.859904,
                1.94086,
                -1.51033,
                -2.77266,
                -0.381036,
                -2.2475,
                -1.34894,
                1.41923,
                0.861229,
                -0.48426,
                0.796064,
                -0.959188,
                -1.34757,
                -0.745517,
                -1.29367,
                0.460242,
                0.754355,
                -0.0345554,
                0.029147,
                -0.864188,
                1.31333,
                -1.82069,
                0.297092,
                -1.69819,
                0.936511,
                0.149373,
                -0.318148,
                -0.273295,
                0.033601,
                -0.4187,
                -0.916577,
                1.60734,
                0.678502,
                -0.362772,
                -0.0561808,
                3.57488,
                2.22312,
                -2.22666,
                -0.923136,
                0.574384,
                0.579179,
                0.177547,
                0.270956,
                -1.14138,
                -0.356296,
                -0.313841,
                1.02968,
                -0.949116,
                0.328446,
                -1.48562,
                -1.88192,
                0.955876,
                -0.680038,
                -0.324172,
                0.496023,
                0.987952,
                -1.35952,
                1.1762,
                0.554596,
                0.309182,
                0.355124,
                0.698266,
                0.243573,
                0.920757,
                0.942612,
                0.313253,
                1.13145,
                0.422523,
                -0.449071,
                -2.27977,
                -0.669028,
                1.20515,
                2.22218,
                -0.459945,
                2.15462,
                -1.88987,
                -1.88621,
                -1.24382,
                -0.282596,
                -0.33727,
                -0.281676,
                -0.250309,
                0.164458,
                -0.994671,
                0.123937,
                1.45643,
                -0.40841,
                -0.515059,
                -0.787445,
                -0.116599,
                0.449816,
                0.141948,
                0.503347,
                0.567995,
                -0.319133,
                -0.131302,
                0.0989641,
                -0.261479,
                0.809524,
                0.158594,
                0.117162,
                -0.515244,
                -0.399348,
                0.00868693,
                -0.394946,
                -0.728482,
                0.333056,
                -0.334869,
                0.0523899,
                0.952958,
                -0.0269475,
                0.913669,
                0.411373,
                0.189509,
                -0.0352426,
                0.18058,
                0.0185839,
                -0.195803,
                0.310034,
                0.288604,
                -0.17682,
                0.579758,
                -0.316385,
                0.610937,
                0.649914,
                -1.05575,
                -1.146,
                -0.0947202,
                0.347698,
                -0.55566,
                -0.0366896,
                -0.243801,
                -0.538648,
                -0.124612,
                -0.45473,
                -0.380759,
                0.2323,
                0.0213204,
                -0.350502,
                0.42937,
                0.567208,
                1.08312,
                -0.263791,
                -0.666659,
                -0.433822,
                1.06743,
                0.938349,
                -0.240382,
                -0.0679341,
                0.799948,
                -0.449724,
                0.464615,
                0.341415,
                1.2545,
                -0.0637382,
                0.714073,
                0.493894,
                -0.139347,
                0.305691,
                0.0684145,
                0.889001,
                0.289638,
                -0.185662,
                0.324042,
                0.306035,
                0.349694,
                0.404313,
                -0.0104505,
                -0.0410295,
                0.565202,
                -0.17823,
                -0.474216,
                -0.27204,
                -0.810129,
                0.103754,
                -0.183197,
                -0.941839,
                -0.034618,
                -0.340474,
                -0.929984,
                0.00599507,
                -0.18097,
                -0.971999,
                0.308347,
                -0.557722,
                0.0651885,
                0.650575,
                1.58385,
                -0.098063,
                0.452848,
                -0.0419686,
                1.42794,
                0.346761,
                0.453197,
                0.0621365,
                -0.224154,
                0.611796,
                -0.14651,
                -0.659272,
                -0.415804,
                -0.0850652,
                0.534318,
                0.118394,
                -1.12452,
                -0.0245674,
                -0.398343,
                -0.478959,
                -0.0919955,
                -0.0191063,
                -0.947419,
                -0.356729,
                0.107922,
                0.174454,
                -0.584744,
                -0.771628,
                -1.00664,
                -0.384303,
                0.790035,
                -0.210929,
                -0.326386,
                -0.220546,
                0.693105,
                0.479772,
                0.158072,
                0.765185,
                -0.184278,
                0.111342,
                -0.603979,
                0.182733,
                -0.0104065,
                -0.961928,
                0.122531,
                -0.122022,
                0.67114,
                0.148664,
                -0.0822114,
                -0.650718,
                -0.582898,
                -0.823976,
                0.199057,
                0.641451,
                -0.308656,
                0.0317957,
                0.0363756,
                0.2924,
                0.91898,
                0.117567,
                0.0557388,
                0.399714,
                0.146224,
                0.0678414,
                -0.97377,
                0.495913,
                -0.00370123,
                -1.19665,
                -0.277409,
                -0.0717786,
                -0.132458,
                -0.0234374,
                -0.184164,
                -0.0544712,
                0.292194,
                -0.0267551,
                -0.557942,
                0.709965,
                0.424019,
                0.295236,
                0.15171,
                -0.102966,
                0.0665422,
                0.304647,
                -0.378386,
                0.32444,
                0.165815,
                -0.586011,
                0.391768,
                0.481379,
                -0.289148,
                -0.553209,
                0.35651,
                -0.10111,
                -0.16255,
                0.507781,
                -0.381634,
                -0.417049,
                0.969969,
                -0.621493,
                -0.317675,
                0.255391,
                -0.869821,
                0.498558,
                -0.219171,
                0.766949,
                -0.144645,
                0.387914,
                1.05221,
                0.794095,
                1.06609,
                0.650239,
                0.595917,
                0.16463,
                0.487891,
                0.311105,
                -0.432215,
                -1.54726,
                -1.37182,
                -0.146223,
                0.0487527,
                -0.840216,
                -0.478946,
                -0.720563,
                0.939669,
                -0.560634,
                -1.38633,
                -0.444338,
                -0.728116,
                -1.40284,
                0.288102,
                -0.339085,
                -0.390434,
                0.268701,
                0.0564086,
                -0.423352,
                0.975389,
                0.314364,
                1.022,
                0.256725,
                0.17478,
                1.45127,
                -0.164634,
                -0.101122,
                -0.394855,
                0.214336,
                -0.117274,
                0.0754014,
                -0.0335166,
                1.06705,
                0.0114062,
                -0.294572,
                0.271255,
                1.44357,
                -0.214532,
                -0.0974281,
                0.016003,
                0.312473,
                -0.348226,
                -0.477547,
                0.223739,
                0.429751,
                -0.282378,
                0.56273,
                0.250983,
                0.26479,
                0.257807,
                -0.138781,
                -0.390649,
                -2.34998e-05,
                -0.77273,
                -0.355164,
                0.280994,
                -0.0813638,
                -0.72072,
                0.153908,
                -0.400152,
                -0.648307,
                -0.612482,
                0.458668,
                0.296088,
                0.523059,
                -0.317188,
                0.262394,
                0.107614,
                -0.0311923,
                -0.440943,
                -0.117097,
                0.337602,
                -0.784437,
                -0.240466,
                0.264041,
                -0.020245,
                -1.06581,
                -0.323962,
                1.54127,
                0.154467,
                -0.278691,
                -0.691852,
                0.0442827,
                0.427535,
                -0.477025,
                0.0792069,
                -0.22867,
                0.169022,
                -0.0937122,
                0.593385,
                0.674521,
                0.664262,
                -0.362245,
                -0.141405,
                -1.19728,
                0.565295,
                1.29708,
                -1.38276,
                0.00985746,
                0.051202,
                -0.114312,
                -0.442906,
                0.233064,
                0.20968,
                0.422859,
                -0.313578,
                -0.0284709,
                0.870392,
                -0.44259,
                -0.468345,
                0.509831,
                -0.932821,
                0.358627,
                -0.524117,
                -0.916717,
                0.554251,
                0.437125,
                -0.608265,
                0.00466868,
                -0.372977,
                -0.533403,
                0.20704,
                0.074724,
                0.0377523,
                0.408543,
                -0.340865,
                1.10913,
                0.745821,
                0.555135,
                0.531443,
                -0.712295,
                0.0540246,
                -0.238971,
                -0.186805,
                0.0736065,
                0.572986,
                0.166891,
                0.0265276,
                0.127587,
                -1.57406,
                -0.517383,
                -0.207977,
                1.03913,
                0.0834956,
                -0.440408,
                -0.515308,
                0.331386,
                -0.407409,
                -0.262702,
                -0.914958,
                0.626297,
                -0.216292,
                0.515769,
                -0.306495,
                0.758669,
                -0.175948,
                0.0297322,
                -0.639491,
                0.358088,
                0.0567534,
                0.290206,
                -0.275025,
                -0.798177,
                -1.23234,
                -0.235991,
                0.505693,
                0.177219,
                1.38459,
                0.18403,
                1.23143,
                -0.198099,
                -0.340131,
                0.115738,
                0.405,
                0.2898,
                -0.10757,
                -0.151715,
                -0.164693,
                -0.0775515,
                0.223136,
                -0.859621,
                1.20501,
                0.338573,
                -0.760838,
                0.719705,
                0.71917,
                -0.540665,
                0.0687057,
                0.360872,
                -0.234389,
                0.573642,
                0.0650952,
                0.329935,
                -0.0773259,
                0.5773,
                0.0612686,
                0.807975,
                -1.5189,
                0.907482,
                -0.759466,
                -0.4914,
                -0.87339,
                0.698532,
                0.155449,
                -0.58176,
                -0.276695,
                0.106594,
                -0.0274785,
                0.205066,
                0.314556,
                -0.0104967,
                0.147511,
                -0.275212,
                0.59834,
                -0.334322,
                -0.139654,
                -0.0313418,
                -0.00966129,
                1.01638,
                -1.01923,
                0.452863,
                -1.47855,
                -0.92332,
                -0.894508,
                -0.101669,
                -0.125584,
                0.0885455,
                0.121348,
                -0.0485302,
                -0.834773,
                -0.136339,
                -0.115416,
                -0.165941,
                -0.387625,
                0.0357626,
                0.856404,
                1.06547,
                0.736266,
                -0.562529,
                0.122741,
                0.947177,
                1.07746,
                0.208352,
                0.827153,
                0.629941,
                0.841424,
                0.0846506,
                1.01203,
                -0.395818,
                0.347208,
                0.562335,
                0.0829983,
                -0.113488,
                -0.407382,
                -0.84988,
                0.925274,
                -0.0192332,
                0.351645,
                -0.657299,
                -0.0594797,
                -0.303828,
                0.268737,
                -0.605166,
                -1.01924,
                0.0582813,
                -0.321611,
                -0.283239,
                0.281165,
                -0.185242,
                0.545563,
                -0.426827,
                -0.118636,
                -0.703572,
                0.455496,
                0.0316723,
                -0.0968082,
                -0.0873789,
                -0.0506382,
                0.436616,
                -1.04812,
                0.245682,
                1.04155,
                -0.21102,
                -0.355772,
                0.0393304,
                0.251493,
                0.035163,
                0.152923,
                -1.67644,
                -0.173338,
                -0.473516,
                0.365147,
                -0.273449,
                -0.694585,
                0.288234,
                0.638915,
                -0.111554,
                0.174688,
                -0.432016,
                -0.103075,
                0.28607,
                0.665726,
                0.293576,
                -0.0275836,
                -0.531071,
                0.0335115,
                0.617817,
                1.91494,
                -0.588427,
                0.353951,
                -0.248653,
                0.237004,
                0.664636,
                -0.772549,
                0.122985,
                -0.732836,
                -0.00888545,
                0.164368,
                -0.0122011,
                0.285184,
                0.208,
                -0.112789,
                0.398788,
                -0.0208979,
                -0.355056,
                -0.52506,
                0.132473,
                -0.473729,
                0.229041,
                0.35827,
                -0.304916,
                0.604618,
                0.044558,
                0.571778,
                0.167604,
                -0.0907116,
                -0.316971,
                -0.382378,
                0.317758,
                0.252471,
                -0.483311,
                -0.39747,
                0.348271,
                0.210871,
                0.531857,
                -0.80801,
                1.20319,
                0.192361,
                -0.130744,
                -0.481368,
                0.45432,
                0.299335,
                -0.0322378,
                -0.452244,
                -0.125862,
                0.482736,
                0.281026,
                0.192674,
                0.258028,
                -0.178594,
                0.155455,
                -0.788273,
                -0.328661,
                -0.495403,
                -0.300052,
                -0.50133,
                0.142316,
                0.223556,
                -0.305774,
                0.0396938,
                -0.108763,
                0.198504,
                0.158648,
                0.300413,
                -0.171371,
                0.408446,
                -0.184338,
                0.20011,
                0.264045,
                1.11247,
                -0.0117684,
                -0.129888,
                -0.0663823,
                -0.60457,
                0.637394,
                0.411162,
                -0.3992,
                0.151359,
                -0.0171648,
                -0.258037,
                0.239358,
                0.110332,
                -0.101582,
                -0.521302,
                0.173341,
                0.00497775,
                0.25512,
                0.359764,
                0.322619,
                -0.389565,
                0.399151,
                -0.202698,
                -0.333808,
                0.639832,
                0.337992,
                -0.409589,
                -0.0564994,
                0.306526,
                0.359334,
                0.145274,
                0.388455,
                0.0228045,
                -0.741278,
                -0.368379,
                -0.270545,
                -0.150501,
                0.542276,
                0.248106,
                -0.994995,
                0.107112,
                -0.399054,
                0.692184,
                0.12338,
                -0.316791,
                0.92525,
                -0.369433,
                -0.176796,
                1.11531,
                -0.497535,
                0.378572,
                -0.867066,
                -0.456491,
                -0.1232,
                -0.408599,
                -0.0386593,
                -1.22835,
                0.547849,
                -0.350613,
                0.0527234,
                -0.155538,
                -0.168532,
                0.237555,
                0.20945,
                -0.116882,
                0.519078,
                -0.291988,
                0.247385,
                0.118901,
                0.0523084,
                0.508156,
                -0.434596,
                1.68454,
                0.614743,
                0.383746,
                -0.66435,
                0.131962,
                -1.43071,
                1.2408,
                -0.85814,
                -0.068195,
                0.197034,
                -0.207028,
                0.176374,
                0.152706,
                0.0242867,
                1.02626,
                -0.313768,
                0.378152,
                0.516198,
                -0.0864898,
                -0.189058,
                0.739262,
                0.158237,
                -0.235525,
                0.595829,
                0.0648337,
                -0.422238,
                0.0343424,
                0.0244005,
                -0.362763,
                0.658179,
                -0.604787,
                0.370271,
                -0.517483,
                -0.645097,
                -0.646382,
                0.856138,
                -0.73718,
                1.034,
                0.267366,
                -0.523701,
                0.0310936,
                -0.273496,
                -0.0443381,
                0.768613,
                0.0290763,
                0.194513,
                0.434099,
                0.400436,
                0.0453805,
                0.406813,
                -0.0392459,
                0.13668,
                0.135092,
                -0.342207,
                -0.30898,
                0.436041,
                -0.636139,
                0.0462289,
                -0.314406,
                -0.858796,
                0.503603,
                0.514582,
                0.16492,
                -0.313556,
                0.374177,
                -0.0928219,
                -0.500373,
                -0.0909172,
                -0.283947,
                -0.489253,
                0.0579835,
                0.922161,
                -0.0584257,
                -0.126538,
                0.147681,
                -1.06557,
                -0.17561,
                0.218218,
                0.0528425,
                -0.202681,
                0.59472,
                0.140803,
                -0.705758,
                -0.11587,
                1.51231,
                0.424373,
                0.139169,
                1.26748,
                -0.0366027,
                -0.653982,
                0.127472,
                -0.0340239,
                -0.636036,
                0.856765,
                -0.157807,
                0.733872,
                -0.697444,
                -0.143333,
                0.188572,
                -1.18398,
                -0.0852121,
                -0.436617,
                0.296558,
                0.0406512,
                -0.420128,
                -0.0465657,
                0.353724,
                -0.151391,
                -0.88275,
                -0.425508,
                0.187263,
                0.283563,
                -0.213774,
                0.725506,
                -0.305534,
                -0.0171056,
                0.741913,
                0.378109,
                0.836252,
                0.149708,
                0.752494,
                -0.677589,
                0.142164,
                -1.35799,
                0.0633765,
                -0.331548,
                0.173744,
                0.370815,
                0.22784,
                0.312825,
                -0.526527,
                -0.226092,
                -0.390134,
                0.132055,
                0.509568,
                0.0180971,
                0.0965011,
                -0.35593,
                -0.165262,
                -0.31249,
                0.139787,
                0.534199,
                0.474834,
                1.04343,
                -0.348967,
                -1.12157,
                0.144069,
                0.699959,
                0.0836895,
                0.0776197,
                0.591805,
                -0.034428,
                -0.452726,
                0.155118,
                0.175766,
                0.121908,
                0.0281041,
                0.269957,
                0.105099,
                -0.0692895,
                0.0364902,
                0.596636,
                0.0341202,
                -0.0996202,
                0.0390159,
                0.263508,
                -0.584698,
                0.520864,
                -0.158379,
                0.198744,
                0.0231142,
                -0.359589,
                -0.0504879,
                -0.269516,
                -0.102374,
                0.0875648,
                0.20518,
                0.141582,
                0.516836,
                -0.0749379,
                -0.632513,
                -0.612003,
                0.437063,
                0.503084,
                -0.0282569,
                0.268406,
                -0.0361052,
                -0.211443,
                0.0548305,
                -0.0192491,
                0.411855,
                -0.0288435,
                -0.566028,
                -0.0973259,
                -0.59928,
                -0.218066,
                0.515712,
                -0.0983001,
                0.0465089,
                0.212539,
                -0.0415936,
                -0.160647,
                -0.547263,
                0.898519,
                0.324067,
                -0.24902,
                -0.38126,
                0.62391,
                -0.281488,
                0.274191,
                -0.500593,
                -0.112833,
                -0.0619894,
                -0.580226,
                -0.516572,
                0.351184,
                -0.21286,
                0.0213059,
                0.631844,
                0.191707,
                -0.186637,
                0.230329,
                0.572424,
                0.253931,
                -0.480085,
                0.429672,
                -0.564487,
                0.0620854,
                0.731031,
                0.112285,
                -0.0923894,
                1.23959,
                0.134081,
                -0.726877,
                -0.77955,
                -0.0865807,
                -0.636192,
                0.3009,
                -0.612278,
                0.532898,
                0.342697,
                0.619743,
                0.238658,
                0.312197,
                0.156782,
                -0.166516,
                0.461334,
                0.295542,
                0.348083,
                -0.355354,
                -0.23881,
                -0.475084,
                0.00400816,
                -1.32962,
                0.174696,
                0.523394,
                0.136696,
                -0.010226,
                -0.465903,
                0.157707,
                -0.347989,
                -0.376118,
                -0.0796475,
                0.0288917,
                1.36952,
                0.238692,
                -0.262451,
                1.06562,
                -0.340959,
                0.45214,
                -0.0479785,
                0.453617,
                -0.237089,
                -0.349104,
                -0.511651,
                -0.1178,
                -0.730936,
                -0.306973,
                -0.653523,
                0.0299203,
                0.120615,
                -0.226926,
                -0.648366,
                0.162145,
                0.1247,
                -0.0339246,
                0.0741567,
                -0.0872073,
                -0.220675,
                1.53253,
                0.344573,
                0.675575,
                0.297948,
                -0.624034,
                -0.958506,
                -0.528511,
                0.405112,
                -0.0728579,
                0.380728,
                0.24306,
                0.254086,
                0.271328,
                -1.01307,
                -0.15184,
                -0.224623,
                -0.270841,
                -1.47982,
                -0.233432,
                0.00387018,
                -0.384423,
                0.283561,
                -0.294534,
                0.152064,
                0.145689,
                -0.251238,
                -0.252836,
                0.0108891,
                -0.228449,
                0.0272707,
                -0.0732783,
                -0.328943,
                1.03081,
                -0.325988,
                0.0842678,
                1.00913,
                -0.458377,
                0.557076,
                0.270006,
                -0.36561,
                -0.738457,
                2.07729,
                -0.224641,
                0.00349554,
                0.529811,
                -0.441368,
                -0.260814,
                0.728804,
                0.105988,
                0.148935,
                -0.134153,
                0.0347568,
                -0.239389,
                -0.904723,
                -0.0353599,
                -0.918593,
                -0.314061,
                -0.262774,
                0.124309,
                0.663472,
                0.154618,
                0.207042,
                -0.450728,
                0.499859,
                0.446279,
                1.13007,
                0.0414132,
                -0.234961,
                0.0460151,
                0.080567,
                -0.209936,
                -1.15681,
                0.533793,
                0.074566,
                -0.419762,
                -0.170757,
                0.844008,
                0.285572,
                0.0994371,
                -0.151479,
                -0.041642,
                -0.334007,
                0.0729615,
                0.348356,
                0.280973,
                -0.0373394,
                0.346709,
                -0.233377,
                1.30878,
                0.491133,
                -0.248247,
                -0.586578,
                -0.114933,
                0.210162,
                -0.798925,
                0.674189,
                -0.114642,
                -0.827677,
                0.173111,
                0.0173636,
                -0.0542268,
                -0.902514,
                0.329714,
                0.388588,
                0.419344,
                0.256639,
                -0.530108,
                0.213585,
                0.902625,
                -0.0755112,
                0.186407,
                -0.324097,
                -0.297442,
                0.178532,
                0.196234,
                0.0448129,
                -0.175126,
                0.0281884,
                0.00573321,
                0.310325,
                0.186921,
                0.39661,
                -0.81976,
                -0.117062,
                0.25799,
                0.489928,
                0.259403,
                0.0405632,
                -0.191038,
                0.222094,
                0.0965364,
                0.163922,
                -0.127916,
                -0.0657553,
                0.0141257,
                -0.0401196,
                0.166485,
                0.0592105,
                0.261459,
                0.165698,
                0.267154,
                -0.328658,
                0.292555,
                -0.877782,
                0.39078,
                -0.408773,
                -0.443322,
                0.124293,
                0.24813,
                0.0769624,
                0.0886732,
                -0.701323,
                0.183182,
                -0.240225,
                -0.135419,
                -0.349914,
                0.646468,
                0.233084,
                -0.125578,
                0.649545,
                0.503895,
                -0.120681,
                -0.161666,
                0.55748,
                0.374125,
                -0.262145,
                -0.333701,
                0.0336213,
                0.0332696,
                0.00357022,
                -0.461869,
                -0.363573,
                -0.231357,
                0.440723,
                0.461403,
                -0.0473659,
                0.531202,
                -0.670637,
                0.414839,
                0.0573498,
                -0.532424,
                -0.131206,
                0.0193122,
                0.361712,
                -0.962292,
                0.508938,
                -0.280869,
                0.0525427,
                0.225533,
                -0.846931,
                0.708939,
                0.972672,
                0.0770387,
                0.520091,
                -0.0964091,
                -0.23986,
                -1.52547,
                0.14577,
                0.150412,
                0.985411,
                -0.126709,
                0.137144,
                0.869322,
                -0.517086,
                0.226596,
                -0.564826,
                -0.332788,
                0.116475,
                -0.13772,
                -0.403747,
                -0.605192,
                0.455279,
                0.941368,
                0.471887,
                -0.207991,
                -0.0263544,
                -0.422395,
                -0.0797059,
                -0.394705,
                0.566698,
                0.0044408,
                -0.201767,
                0.262325,
                -0.606502,
                0.179381,
                0.191314,
                0.373213,
                1.13782,
                0.724086,
                -0.231597,
                0.525539,
                -0.261127,
                0.166092,
                0.522764,
                0.820509,
                -0.515342,
                -0.0649184,
                -0.938243,
                -0.430042,
                -0.177821,
                0.224265,
                -0.57761,
                -0.48794,
                0.214847,
                0.0296358,
                -0.00890092,
                0.612408,
                0.214715,
                -1.34116,
                -0.717144,
                -0.414535,
                -0.621133,
                0.691355,
                -0.582994,
                -0.493914,
                1.18207,
                -0.52031,
                1.51414,
                -0.165055,
                -0.297792,
                -0.15931,
                -0.173735,
                0.031489,
                1.04697,
                0.163419,
                -0.638407,
                0.422345,
                0.260236,
                -0.480194,
                -0.240135,
                -0.6109,
                0.193113,
                0.409996,
                1.22834,
                -0.136416,
                -0.188215,
                0.264144,
                -0.0429648,
                -0.267064,
                -0.240331,
                0.29898,
                0.397082,
                0.126028,
                -0.0263156,
                0.244305,
                0.250657,
                -0.0932508,
                -0.698133,
                0.147188,
                0.078089,
                0.0211044,
                -0.431103,
                0.486863,
                -0.517709,
                0.754781,
                1.18863,
                -0.050801,
                -0.00981701,
                0.191535,
                0.515702,
                0.124471,
                -0.0349609,
                -0.348447,
                0.353311,
                1.19894,
                -0.874677,
                0.334028,
                -0.232693,
                -0.557863,
                0.439215,
                0.426817,
                -0.944084,
                -0.842321,
                -0.484321,
                -0.310305,
                -0.558352,
                -0.00391752,
                -0.082108,
                -0.592965,
                -0.035835,
                0.24826,
                1.18956,
                -0.765984,
                1.75108,
                -1.00415,
                0.313219,
                0.192608,
                -0.393399,
                -0.624716,
                -0.572332,
                0.423745,
                -0.391697,
                -0.225909,
                -0.543227,
                0.714617,
                -0.307286,
                -0.0166532,
                -0.0993362,
                -0.140999,
                0.0730168,
                -0.205963,
                0.568481,
                0.458472,
                -0.232572,
                -0.103043,
                -0.362748,
                -0.124636,
                -0.569776,
                -0.42649,
                -0.47044,
                -0.516471,
                -0.0485655,
                -0.232691,
                0.0536571,
                0.229524,
                0.256862,
                0.0960512,
                0.318717,
                0.0999115,
                0.810929,
                -0.164044,
                0.167725,
                -0.496437,
                0.189194,
                0.156876,
                0.393084,
                -0.0876085,
                -0.252362,
                -0.24665,
                -0.164189,
                0.346017,
                0.234153,
                0.32491,
                0.253763,
                -0.30275,
                0.258226,
                0.507393,
                0.0141361,
                -0.0908646,
                -0.665512,
                0.123894,
                -0.19094,
                0.380252,
                -0.0343406,
                -0.0831336,
                0.248761,
                0.183832,
                0.158342,
                0.264809,
                -0.0251711,
                0.209421,
                -0.062079,
                -0.0460571,
                -0.378865,
                -0.283513,
                -0.479852,
                0.217152,
                -0.527312,
                0.493963,
                0.408641,
                0.213622,
                0.543693,
                -0.689782,
                0.708076,
                0.246505,
                -0.246781,
                0.0987594,
                -1.01148,
                -0.491985,
                -1.09139,
                -0.0494819,
                -0.116532,
                0.213652,
                -1.13722,
                -0.323096,
                -0.768155,
                0.577517,
                -0.421779,
                0.219588,
                -0.0192038,
                -0.195945,
                -0.590572,
                -0.290491,
                -0.0141357,
                -0.16045,
                0.452713,
                -0.18217,
                -0.0715489,
                -0.882616,
                0.713534,
                0.481624,
                1.58174,
                -0.0710251,
                0.37657,
                1.0415,
                1.41519,
                0.727387,
                0.0195796,
                0.476902,
                -0.209497,
                0.144168,
                0.349397,
                -0.227897,
                -0.855278,
                0.68028,
                1.45797,
                -1.03212,
                -0.930342,
                0.148475,
                -0.11104,
                0.209275,
                -0.149557,
                -0.135804,
                -0.645809,
                0.423854,
                -0.429791,
                -0.363689,
                -0.00275653,
                0.237626,
                -0.460072,
                -0.00999375,
                1.63738,
                -0.598159,
                -0.671474,
                -0.459039,
                0.335781,
                0.0734145,
                0.64589,
                0.198035,
                -0.129514,
                -0.762087,
                0.8989,
                0.290529,
                -0.328223,
                0.636656,
                -1.21642,
                -0.0446788,
                0.0854974,
                0.461606,
                0.138188,
                0.20136,
                -0.912872,
                0.303281,
                -0.397132,
                0.578879,
                -0.655755,
                -0.114815,
                -0.457166,
                0.741687,
                -0.757911,
                0.0539697,
                -0.0966958,
                0.79072,
                -0.449392,
                0.123634,
                -0.49765,
                -0.434523,
                -0.667427,
                0.315294,
                -0.602027,
                -0.268752,
                -1.07744,
                -0.0859645,
                0.867052,
                -0.477955,
                0.00963204,
                0.534297,
                1.24892,
                -0.347175,
                1.76893,
                0.257133,
                0.390702,
                -0.40191,
                0.249479,
                0.0322888,
                0.0238232,
                -0.38977,
                -0.374669,
                -0.551856,
                -0.387095,
                0.0674526,
                -0.861227,
                -0.679367,
                -0.695566,
                -0.106192,
                0.182122,
                0.601071,
                -0.0942268,
                -0.0693031,
                0.331735,
                0.479856,
                -0.0251978,
                -0.0677042,
                0.722323,
                0.217305,
                0.36005,
                -0.502987,
                0.345445,
                -0.0820429,
                0.501357,
                -0.582655,
                -0.388667,
                -0.124519,
                0.41498,
                1.02932,
                0.612317,
                -0.821451,
                -1.28986,
                -0.292886,
                0.0340763,
                0.517326,
                0.976936,
                -0.275026,
                -0.310671,
                -0.598711,
                -0.0855855,
                -0.0952931,
                -0.471782,
                0.609476,
                0.450417,
                -0.112568,
                0.0346101,
                0.393379,
                0.145593,
                0.110185,
                0.0634395,
                -0.369872,
                0.481611,
                0.816539,
                0.368163,
                0.399944,
                0.521201,
                -0.0430239,
                0.138579,
                0.854821,
                -0.538224,
                -0.28818,
                -0.950336,
                -0.322727,
                0.359221,
                -0.250829,
                0.691369,
                -0.406152,
                -0.246146,
                0.296121,
                -0.0438851,
                0.635323,
                0.787143,
                0.311522,
                -0.536248,
                -1.15467,
                0.649306,
                -1.59923,
                0.365909,
                0.115772,
                0.461255,
                0.064587,
                -0.0463315,
                0.852333,
                -0.172361,
                -0.137546,
                -0.1785,
                0.228991,
                -0.814915,
                -0.018469,
                0.432455,
                -0.240014,
                0.279851,
                -0.511533,
                -0.505735,
                0.126438,
                -0.450519,
                0.230181,
                -1.02651,
                0.694941,
                0.705516,
                0.187246,
                1.37249,
                0.415441,
                -0.622982,
                0.73592,
                0.334763,
                0.0265254,
                0.122996,
                0.388946,
                1.6426,
                -0.431973,
                0.824019,
                1.25044,
                -0.0121844,
                -0.94578,
                0.128988,
                -0.838254,
                -0.380306,
                1.51042,
                -0.320459,
                0.64002,
                -0.330736,
                -0.80916,
                -0.519919,
                -0.0272709,
                -0.864071,
                -0.879815,
                -0.819515,
                -0.841926,
                0.47057,
                -0.648167,
                -1.87362,
                0.1722,
                0.603841,
                0.515338,
                0.404903,
                -0.797867,
                1.95777,
                0.614301,
                -0.433378,
                -0.0600595,
                -0.569503,
                0.738844,
                -0.221137,
                0.921061,
                0.348419,
                -0.23693,
                0.376902,
                0.575614,
                0.0901561,
                -0.977984,
                -0.727509,
                -0.107243,
                -0.411401,
                -0.42717,
                0.315803,
                -1.08181,
                -0.273702,
                0.0567436,
                0.466934,
                -0.191783,
                0.252454,
                -0.801915,
                -0.280472,
                0.424484,
                0.100149,
                0.433879,
                -0.128,
                -0.190949,
                -0.397474,
                0.710878,
                -0.501532,
                0.961677,
                1.16181,
                -0.187107,
                -0.253235,
                -0.485449,
                0.829128,
                0.126326,
                -0.210064,
                -0.243203,
                0.120705,
                0.481781,
                0.0488928,
                0.238721,
                0.0423601,
                -0.171027,
                0.528473,
                -0.459539,
                0.91527,
                -0.261176,
                -0.0597079,
                0.255114,
                -0.201674,
                0.331681,
                -0.448249,
                0.385545,
                -0.174996,
                0.00443325,
                0.0222678,
                0.11953,
                -0.738415,
                0.384338,
                -0.714636,
                0.832557,
                -0.831374,
                0.24448,
                0.283745,
                -0.136971,
                -0.462619,
                -0.0382911,
                -0.375578,
                -0.900998,
                -0.380174,
                -0.401117,
                2.02934,
                0.140029,
                0.688195,
                -0.741075,
                0.574102,
                -0.405401,
                -0.450012,
                -0.468621,
                -0.00834584,
                0.213395,
                0.476305,
                1.18768,
                -0.544966,
                -0.0651675,
                0.625662,
                -0.645457,
                -0.206256,
                0.0491851,
                -1.05454,
                -0.0325922,
                0.304687,
                -0.490671,
                -0.576077,
                -0.788131,
                0.351437,
                -0.704939,
                1.21052,
                -0.81639,
                0.955833,
                -0.187347,
                1.6,
                -0.0606083,
                0.899044,
                -0.263538,
                -0.223946,
                -0.0382271,
                0.630989,
                0.5905,
                0.165491,
                0.234178,
                -0.510665,
                -0.193526,
                -0.246869,
                0.750149,
                -0.79525,
                0.259627,
                -0.0982066,
                0.954894,
                -0.637852,
                -0.443289,
                -0.35324,
                0.581347,
                -0.0481637,
                -0.0947488,
                1.23846,
                0.643135,
                0.0529698,
                -1.57516,
                -0.613895,
                -0.177076,
                0.787614,
                -0.362167,
                -0.0605689,
                -0.87142,
                -0.305953,
                -0.803593,
                1.67464,
                -0.393042,
                0.276616,
                0.255672,
                0.660288,
                -0.377918,
                0.553975,
                -0.404222,
                0.31444,
                -0.723642,
                -0.189877,
                -0.195981,
                0.846767,
                0.450271,
                -0.663779,
                0.267806,
                -0.755311,
                0.959977,
                0.566438,
                0.0878123,
                0.0902672,
                -0.321595,
                -0.0531539,
                -0.103988,
                0.399893,
                0.611885,
                -0.104736,
                -0.668079,
                0.178095,
                -0.586528,
                -0.765813,
                0.666658,
                -0.103015,
                -0.435388,
                1.00617,
                -0.235763,
                -0.107413,
                -0.102345,
                0.0699975,
                -0.350669,
                -0.337305,
                -0.211684,
                -0.304538,
                0.0615821,
                0.601481,
                0.267677,
                0.059347,
                0.433434,
                0.393635,
                -0.0457473,
                0.225997,
                0.296231,
                -0.124624,
                -1.09138,
                -0.271287,
                0.271991,
                0.0299149,
                0.223803,
                -0.0952066,
                -0.488522,
                0.121904,
                0.0628378,
                -0.134917,
                0.317979,
                0.59325,
                0.315756,
                -0.711481,
                -1.13455,
                -0.261821,
                0.84845,
                0.27286,
                0.235484,
                0.151899,
                -0.262222,
                0.450552,
                0.0673097,
                0.419977,
                0.108739,
                0.766514,
                0.0653322,
                -0.713561,
                -0.690161,
                -0.537608,
                0.0676959,
                -0.665221,
                1.21354,
                0.220966,
                0.284593,
                -0.577144,
                -0.489646,
                0.0161237,
                -0.135205,
                0.225044,
                0.277502,
                0.488186,
                0.220633,
                -0.360119,
                0.013246,
                0.0288851,
                0.308608,
                -0.551646,
                0.61537,
                0.0283241,
                -0.364747,
                -0.639265,
                -0.505541,
                -0.163051,
                1.23744,
                -0.691503,
                0.564442,
                0.0532291,
                -0.0138526,
                -0.736024,
                0.00257744,
                -0.323546,
                -0.131715,
                -0.0544693,
                0.362431,
                -0.121648,
                -0.33373,
                0.229473,
                0.317508,
                -0.0423134,
                0.338914,
                0.948206,
                0.0180921,
                0.519481,
                0.508727,
                0.20072,
                0.416799,
                0.341125,
                0.442432,
                -1.00708,
                0.0597164,
                0.275254,
                -0.194397,
                -1.00784,
                0.256761,
                -0.295508,
                -0.954988,
                0.381142,
                -0.127673,
                -0.135568,
                0.454856,
                -1.72058,
                0.522025,
                -1.33217,
                0.268127,
                -0.0735527,
                0.406753,
                0.864214,
                0.0600962,
                0.102408,
                -0.63711,
                0.0643201,
                0.431342,
                0.0370152,
                0.557943,
                0.945664,
                -0.098153,
                0.137039,
                0.0476029,
                0.725743,
                0.23619,
                0.369916,
                -0.0505939,
                0.0169118,
                -0.174469,
                -0.0464621,
                0.494581,
                -0.505661,
                0.451411,
                0.432978,
                1.35888,
                -1.03347,
                0.752523,
                -1.97375,
                0.196922,
                -0.43565,
                -1.81021,
                -0.837489,
                0.0975376,
                -0.47816,
                -0.223874,
                -0.487971,
                0.185477,
                0.612507,
                0.526954,
                -0.0700799,
                -0.540308,
                -0.0948029,
                -0.267856,
                0.0328825,
                0.066247,
                -0.117165,
                -0.658336,
                0.964943,
                0.0584167,
                -0.29356,
                0.429183,
                -0.180715,
                -0.0975716,
                0.290416,
                0.0927328,
                0.530204,
                0.491602,
                -0.364013,
                -0.761145,
                -0.164443,
                -0.272551,
                1.03817,
                0.068555,
                0.0878713,
                0.12174,
                -0.0694654,
                -0.292333,
                0.323527,
                -0.00423617,
                0.0358951,
                0.0648833,
                -0.185812,
                0.089072,
                -0.33385,
                0.0340067,
                -0.0055371,
                -0.85407,
                -0.212422,
                0.432001,
                0.573804,
                -0.438077,
                0.556362,
                -0.340041,
                -0.165229,
                0.266259,
                -0.0254194,
                0.353912,
                -0.122202,
                0.181469,
                0.0340775,
                -0.392056,
                0.198535,
                0.174124,
                -0.0398132,
                0.661646,
                -0.504993,
                0.308951,
