{
    "layers": [
        {
            "name": "input",
            "type": "input",
            "size": 36
        },
        {
            "name": "blstm_level_0",
            "type": "blstm",
            "size": 150,
            "bias": 1
        },
        {
            "name": "output",
            "type": "softmax",
            "size": 14,
            "bias": 1
        },
        {
            "name": "postoutput",
            "type": "multiclass_classification",
            "size": 14
        }
    ],
    "weights": {
        "blstm_level_0": {
            "input": [
                -0.442969,
                -0.236183,
                0.656979,
                -1.37117,
                0.603159,
                -0.740305,
                -0.345009,
                -1.41354,
                -0.613001,
                -0.674385,
                1.33979,
                0.236032,
                1.21372,
                -0.885624,
                0.694297,
                -1.56286,
                1.6217,
                -0.983223,
                0.687768,
                -0.484137,
                -0.326213,
                -0.076934,
                -0.58252,
                -0.947656,
                -0.186027,
                -0.168752,
                -0.290858,
                1.99671,
                0.475693,
                0.520782,
                -1.16506,
                1.61714,
                -1.19902,
                -0.472114,
                0.359657,
                2.23124,
                0.363821,
                -0.0162198,
                0.145913,
                0.116258,
                -0.152748,
                -0.831798,
                -0.681598,
                -0.228752,
                -0.276906,
                -0.529863,
                -0.266522,
                0.45349,
                0.147017,
                -0.0616696,
                0.596288,
                -0.53217,
                0.156015,
                -0.0540975,
                0.252012,
                0.525208,
                0.0648404,
                0.182997,
                0.264283,
                -0.337774,
                0.213877,
                -0.010822,
                0.0134026,
                0.218631,
                0.0537056,
                0.052025,
                -0.494859,
                -1.2498,
                0.651692,
                0.302817,
                0.526501,
                0.0631472,
                -0.122071,
                -0.637191,
                -0.127716,
                0.802603,
                0.00368022,
                -0.599853,
                0.0546632,
                -0.396219,
                0.125774,
                -0.24936,
                0.382567,
                -0.504729,
                0.0620817,
                -0.0149349,
                0.213314,
                0.259567,
                0.224024,
                -0.754294,
                -0.158417,
                0.0891364,
                0.294772,
                -0.158278,
                -0.0108587,
                0.250877,
                -0.231448,
                0.0650455,
                0.18804,
                0.519038,
                0.0225727,
                -0.11044,
                0.0281403,
                -0.0840804,
                -0.0769492,
                -0.297558,
                0.319042,
                0.411598,
                0.285446,
                -0.465227,
                0.383549,
                -0.0815017,
                -0.342621,
                -0.182523,
                0.0175426,
                -0.560325,
                -0.075168,
                0.258073,
                -0.425254,
                -0.440953,
                0.322295,
                0.122183,
                -0.627262,
                -0.679876,
                0.615171,
                0.231064,
                -0.115535,
                0.158435,
                -0.291071,
                -0.0156821,
                -0.188594,
                -0.466102,
                -0.018597,
                0.764486,
                0.628474,
                -0.443341,
                -0.124909,
                0.660892,
                1.18746,
                -0.615565,
                0.133388,
                -0.250445,
                1.39303,
                -0.139844,
                0.212852,
                -1.82124,
                1.61933,
                -1.06746,
                0.456164,
                1.61802,
                -0.337011,
                1.07575,
                -0.846933,
                0.0593539,
                -1.43489,
                0.538784,
                -0.0579124,
                -0.443601,
                -0.611221,
                0.415236,
                1.24899,
                0.955723,
                0.309483,
                0.274839,
                0.150629,
                0.2002,
                0.0116172,
                -0.0637046,
                0.314114,
                -0.529036,
                0.319904,
                -1.20434,
                -0.719146,
                -1.19469,
                -0.519434,
                -1.11471,
                -0.429802,
                0.723585,
                1.71116,
                0.587661,
                0.155808,
                -0.613916,
                0.413777,
                -0.441298,
                0.0726687,
                -1.05332,
                0.141681,
                0.0610952,
                0.166349,
                -0.342959,
                0.279246,
                0.18585,
                -0.23382,
                -0.173903,
                -0.0711952,
                0.463929,
                -0.114801,
                0.00317176,
                0.118175,
                0.183607,
                0.124919,
                0.207398,
                -0.292886,
                0.169849,
                0.297562,
                -0.42374,
                0.492745,
                -0.57732,
                -0.760719,
                0.148323,
                0.0797267,
                -0.866637,
                0.856106,
                0.175219,
                -0.317213,
                0.984372,
                -0.076966,
                0.29744,
                0.072962,
                0.953346,
                -0.00220563,
                0.581225,
                0.151737,
                0.076402,
                0.230101,
                0.254185,
                -0.242735,
                0.577743,
                0.123693,
                -0.815496,
                0.416375,
                -0.696327,
                0.600913,
                -0.28455,
                0.234079,
                0.00848913,
                -0.274357,
                0.0808393,
                -0.217709,
                0.258103,
                -0.590627,
                0.208017,
                -0.604885,
                -1.14742,
                1.21714,
                0.29242,
                0.421263,
                -1.04168,
                -0.605532,
                0.272588,
                -0.523751,
                0.161102,
                -0.0376102,
                0.372049,
                -0.862695,
                0.453589,
                -0.265249,
                -0.921795,
                0.110341,
                0.26521,
                -0.632766,
                0.412965,
                0.131308,
                0.00723494,
                0.168499,
                -0.0849803,
                0.189178,
                -0.190775,
                -0.658366,
                -0.894387,
                0.409508,
                0.0900486,
                0.0200576,
                -0.116127,
                0.513879,
                0.255926,
                -0.0565914,
                0.0294537,
                -0.3516,
                1.44205,
                -0.109838,
                -1.28309,
                0.863901,
                1.27431,
                0.264928,
                -0.177112,
                -0.0585349,
                -0.405463,
                0.00794477,
                -0.947742,
                0.76888,
                0.133046,
                0.223074,
                1.76271,
                -0.292753,
                -1.07477,
                0.4879,
                0.136566,
                -0.0721891,
                -0.465229,
                0.433917,
                -0.672585,
                0.169382,
                -0.110769,
                -0.152421,
                -0.0516283,
                -0.0304305,
                -0.433241,
                0.0362238,
                0.249496,
                -0.420513,
                -0.495066,
                -0.150238,
                -0.269071,
                -0.0973082,
                -0.453014,
                0.456399,
                0.689095,
                0.245505,
                -0.503579,
                0.533171,
                0.0101236,
                1.41137,
                -0.951017,
                0.0389241,
                -0.238556,
                -0.549184,
                -0.786692,
                -0.040299,
                -1.03378,
                -0.355148,
                -0.466294,
                0.221455,
                -0.0419035,
                -0.278839,
                -0.270856,
                -0.225403,
                0.657348,
                0.370633,
                -0.0976082,
                -0.424076,
                -0.009033,
                0.536479,
                0.0891872,
                -0.102876,
                -0.0347223,
                -0.545887,
                -0.547711,
                0.153612,
                -0.311049,
                0.0112046,
                1.07682,
                0.459438,
                0.417339,
                0.38265,
                0.481095,
                0.81317,
                0.178332,
                0.017488,
                0.790165,
                -0.426761,
                0.386729,
                -0.738759,
                0.869035,
                0.310652,
                -1.72167,
                -0.0743107,
                0.0694697,
                0.628389,
                -1.17747,
                -0.636487,
                0.23648,
                0.000433266,
                0.205874,
                0.787417,
                -0.273405,
                -0.211472,
                -0.509913,
                -0.524902,
                0.249961,
                0.614242,
                0.15612,
                0.0281759,
                0.407486,
                -0.0260671,
                0.282225,
                -0.667399,
                -0.00357574,
                0.736966,
                -0.856687,
                0.978424,
                0.872967,
                0.589184,
                -0.535593,
                0.446221,
                -0.756086,
                -0.319619,
                0.44654,
                -0.243373,
                0.828855,
                -0.319167,
                -0.217452,
                0.199774,
                -0.402158,
                -0.0787887,
                0.425069,
                0.893629,
                -0.107356,
                0.0471767,
                0.600587,
                -0.562208,
                0.752125,
                0.533084,
                -0.102071,
                0.208113,
                0.368466,
                -0.521996,
                -0.050635,
                -0.13867,
                -0.908034,
                -0.0762234,
                -0.319801,
                -0.581981,
                -1.16275,
                0.874974,
                0.272906,
                0.262513,
                -1.27494,
                0.884576,
                -0.136361,
                -0.823494,
                0.451789,
                -0.0766767,
                -0.0105099,
                -0.292415,
                1.08915,
                -0.276098,
                1.75458,
                -0.282039,
                -0.229056,
                0.961596,
                0.644406,
                0.420865,
                -0.331138,
                -0.512104,
                0.306278,
                -0.956218,
                -1.24631,
                0.211914,
                -0.0576665,
                0.287377,
                -0.339202,
                -0.278717,
                0.00251916,
                -0.0802345,
                -0.745115,
                -0.145695,
                0.180248,
                1.19488,
                -0.647213,
                -0.731048,
                -0.34789,
                0.478655,
                -0.99687,
                -1.08426,
                1.10588,
                -0.470761,
                1.39919,
                -0.329203,
                0.0810004,
                0.778986,
                0.340625,
                -0.388528,
                1.24792,
                0.43264,
                -0.982951,
                -0.397307,
                -0.373412,
                1.11116,
                -0.585883,
                -0.590262,
                0.80758,
                -0.486511,
                0.788649,
                0.673202,
                -1.48988,
                0.282853,
                0.231116,
                -0.485931,
                0.219772,
                -0.237163,
                -0.236576,
                -0.482121,
                -0.573975,
                1.72982,
                0.452941,
                -0.869485,
                -1.08921,
                -1.19978,
                -0.407486,
                -0.412286,
                -0.0572241,
                0.925097,
                1.25736,
                0.130178,
                1.21293,
                -0.226036,
                -0.0422982,
                -0.140503,
                -0.518605,
                -0.114837,
                0.0918271,
                -0.242784,
                -0.0245409,
                -0.424717,
                0.113109,
                -0.151036,
                0.106555,
                0.0120055,
                -0.114882,
                -0.259989,
                0.752934,
                -0.0841844,
                -0.00932215,
                0.0362432,
                -0.305471,
                0.193389,
                -0.205176,
                0.0436304,
                -0.0810475,
                1.03723,
                -0.281761,
                -0.60368,
                -0.478457,
                0.269097,
                0.388968,
                0.142617,
                0.000481163,
                0.188525,
                -0.589468,
                -0.345378,
                -0.408554,
                -0.55285,
                0.390546,
                0.781931,
                0.207718,
                0.396916,
                0.068714,
                0.479373,
                0.0675033,
                1.27378,
                -0.00895288,
                -0.671779,
                -0.07579,
                0.497638,
                -0.0607921,
                0.141009,
                0.123882,
                -0.111467,
                0.116663,
                -0.381953,
                0.046937,
                -0.687277,
                -0.434852,
                -0.145851,
                0.141916,
                0.668146,
                -0.164905,
                -0.487716,
                0.540917,
                -0.328925,
                1.17652,
                -0.603985,
                -0.0528104,
                -0.972023,
                -0.567646,
                -0.140603,
                0.94835,
                -0.462997,
                0.558419,
                -0.140856,
                1.43614,
                0.478631,
                -0.0363405,
                -0.419853,
                -0.247547,
                1.46668,
                -0.00498817,
                -0.120882,
                0.256165,
                -0.151493,
                -0.342812,
                1.77168,
                -0.766318,
                -0.509173,
                0.00485759,
                -0.560976,
                -0.227512,
                -0.119008,
                0.554059,
                -0.524424,
                0.51339,
                -0.532747,
                -0.397988,
                -0.0344803,
                0.148711,
                -1.34683,
                -0.0916984,
                -0.739546,
                0.00547657,
                0.107312,
                0.239006,
                0.0518432,
                0.0755071,
                -0.234668,
                -0.0878815,
                0.132594,
                -0.212573,
                0.0752658,
                0.0696621,
                0.0881636,
                -0.694188,
                0.129446,
                0.0468764,
                -0.0342841,
                0.0858549,
                0.17027,
                0.669698,
                -0.323241,
                0.118728,
                -0.183302,
                -0.077741,
                0.311782,
                0.246325,
                0.0151235,
                -0.0441982,
                0.123074,
                0.210042,
                -0.343235,
                0.358165,
                0.0848657,
                -0.241254,
                0.348002,
                -0.378386,
                -0.710033,
                0.0493058,
                0.57073,
                0.0492163,
                0.174455,
                -0.803449,
                -0.0123504,
                0.249832,
                0.0763355,
                0.190456,
                0.16167,
                -0.298148,
                0.186464,
                -0.53451,
                0.510571,
                0.324365,
                -0.115879,
                0.0837212,
                0.0542338,
                0.507406,
                0.263333,
                -0.490168,
                0.146422,
                0.0160803,
                0.11147,
                0.122252,
                0.0226252,
                -0.114593,
                0.293141,
                -0.079268,
                -1.00256,
                0.179934,
                0.290152,
                0.382161,
                0.336534,
                -0.277053,
                -0.867015,
                -0.110952,
                -0.149976,
                0.394032,
                -0.442984,
                0.0105907,
                0.134214,
                -0.758582,
                0.0163459,
                1.03106,
                0.670199,
                -0.582092,
                0.188664,
                -0.138849,
                -0.894559,
                0.0699815,
                -0.422066,
                -0.185516,
                -0.733738,
                -0.218265,
                -0.0776297,
                0.0560288,
                -0.213109,
                -0.141448,
                0.124268,
                -0.139333,
                -0.0325412,
                -0.477441,
                -0.0748885,
                0.214027,
                0.476799,
                -0.161863,
                0.139779,
                -0.740547,
                0.38709,
                -0.43399,
                1.18183,
                -0.50958,
                -0.225674,
                2.0265,
                -0.0635436,
                -0.173465,
                -0.0254702,
                0.658125,
                -0.0918886,
                -1.45971,
                0.647693,
                -0.256769,
                0.507636,
                -1.00222,
                0.972596,
                -0.329055,
                -0.220757,
                -0.00325461,
                0.108823,
                -1.01882,
                1.09762,
                0.468633,
                -0.431986,
                0.327487,
                0.186123,
                0.234306,
                -0.0833958,
                -0.181592,
                0.0667438,
                -0.179973,
                0.516579,
                0.146664,
                0.869324,
                0.409531,
                -0.284222,
                -1.83183,
                1.30244,
                -0.045073,
                -1.57052,
                1.01688,
                0.413407,
                -0.150549,
                0.561265,
                -0.568745,
                -0.520008,
                0.835968,
                0.0788545,
                0.205831,
                -0.273004,
                -0.582041,
                0.887318,
                -0.45494,
                -0.190281,
                -0.759543,
                -0.0862799,
                -0.934645,
                -0.144162,
                0.276237,
                -0.200182,
                0.161782,
                -0.200822,
                0.0692696,
                -0.353854,
                0.61451,
                -0.266123,
                -0.195716,
                0.735929,
                -0.156797,
                -0.300898,
                -0.0890981,
                0.703833,
                -0.527085,
                0.508444,
                0.458199,
                0.343891,
                0.186429,
                -0.320587,
                0.363913,
                -0.0385962,
                0.0664077,
                -0.0976012,
                -0.212023,
                0.0844374,
                -0.0902921,
                -0.406075,
                -0.107547,
                0.527928,
                0.637316,
                -0.629607,
                -0.37937,
                -0.29242,
                -0.676739,
                -0.121814,
                -0.239167,
                -0.000520832,
                -0.32017,
                -0.159398,
                0.144785,
                0.0774462,
                0.797218,
                -0.153577,
                -0.0495836,
                -0.0926391,
                0.201937,
                -0.248931,
                0.480055,
                0.293742,
                0.0636526,
                0.0149726,
                0.0259497,
                0.129527,
                -0.098034,
                -0.418689,
                0.563852,
                -1.00011,
                1.36818,
                0.00198089,
                -0.0670259,
                0.0536755,
                -0.445645,
                -1.58055,
                0.598454,
                1.1261,
                0.628607,
                -0.746495,
                0.875446,
                -0.580862,
                -0.500096,
                0.536905,
                -0.136773,
                0.105269,
                -0.109403,
                -0.325847,
                -0.132523,
                0.187009,
                0.402635,
                -0.349164,
                -0.244038,
                -0.0924886,
                0.524101,
                0.0867569,
                -0.297393,
                -0.0594435,
                0.918751,
                -0.103072,
                -0.753937,
                -0.940539,
                1.05891,
                0.412851,
                -0.347921,
                0.486044,
                0.50445,
                -0.169607,
                1.3143,
                -0.28548,
                -0.296408,
                1.55534,
                -0.768582,
                0.00962615,
                -0.0308124,
                -0.350071,
                -0.852992,
                -0.415748,
                0.213857,
                0.194983,
                0.0184811,
                0.117019,
                -0.221157,
                0.086384,
                -0.758761,
                0.432614,
                -0.157241,
                -0.260104,
                0.0894184,
                1.34039,
                0.258803,
                0.706503,
                -2.11441,
                -1.56543,
                0.00693099,
                0.00507211,
                0.614843,
                0.298518,
                -0.118654,
                0.402792,
                -1.02812,
                -0.479619,
                1.14863,
                0.347652,
                -0.796961,
                0.0297757,
                0.343541,
                -0.910216,
                0.89727,
                -0.13679,
                0.495737,
                0.469187,
                0.847999,
                -0.325259,
                -0.203029,
                -0.100875,
                0.261641,
                -0.0785103,
                0.402662,
                -1.02313,
                0.157108,
                0.0921549,
                0.606854,
                0.242212,
                -0.501178,
                0.246986,
                0.217158,
                -0.494657,
                -0.949823,
                0.599813,
                0.519284,
                0.990046,
                -0.342026,
                -0.884064,
                -0.81221,
                -0.256068,
                -0.52427,
                0.509705,
                0.333082,
                0.0270651,
                1.09965,
                0.219686,
                -0.222203,
                -1.09926,
                -0.732394,
                1.20319,
                -0.275716,
                0.457202,
                0.325052,
                0.904727,
                -0.969236,
                0.235296,
                0.0196339,
                -0.141086,
                0.0874989,
                -0.390798,
                0.388899,
                -0.448474,
                0.229113,
                -0.123383,
                0.336632,
                0.491075,
                -1.01486,
                -0.155682,
                -0.0577447,
                -0.962028,
                0.0358001,
                0.0662745,
                -0.324069,
                -0.04197,
                0.41204,
                0.0933392,
                0.288455,
                -0.294153,
                0.452348,
                0.604747,
                -0.831268,
                -0.0164355,
                0.0839392,
                0.637764,
                -0.151504,
                0.45971,
                -0.0429254,
                -0.208411,
                -0.318281,
                0.490382,
                0.239616,
                0.0971013,
                0.109591,
                -0.00890358,
                0.289854,
                0.336268,
                -0.0583836,
                -0.399714,
                0.25723,
                0.116437,
                -0.0602127,
                -0.941233,
                0.097407,
                0.314853,
                -0.318648,
                -0.578965,
                0.39202,
                -0.772176,
                0.385044,
                -0.98484,
                0.484561,
                -0.330964,
                1.32531,
                -0.96558,
                1.28021,
                -0.582826,
                -0.513832,
                -0.190921,
                0.86554,
                1.14365,
                -0.412376,
                -0.120779,
                -0.620892,
                0.572186,
                -1.0794,
                -0.780498,
                -0.896374,
                0.55732,
                -0.607077,
                -0.794059,
                -1.08502,
                -0.539679,
                -0.671667,
                0.0213624,
                -0.0625891,
                -0.605295,
                0.326424,
                -0.362569,
                1.75623,
                -0.718459,
                1.77025,
                1.74613,
                2.1167,
                -0.131725,
                -0.50035,
                -0.443522,
                -0.595221,
                -0.110527,
                -0.701182,
                0.428538,
                -0.409339,
                -0.103253,
                4.12626,
                -1.10502,
                -0.371545,
                -1.04537,
                -0.44439,
                -1.03588,
                -0.760331,
                -1.51056,
                -0.801663,
                -1.09022,
                0.114284,
                -1.41888,
                0.626742,
                0.606388,
                0.293423,
                0.0956506,
                0.483089,
                -0.0221982,
                -1.08933,
                0.389413,
                0.305571,
                -0.188205,
                -1.32676,
                -1.24365,
                0.815784,
                2.879,
                -0.417098,
                0.924738,
                1.75958,
                0.735601,
                -0.879977,
                -0.144256,
                -0.384928,
                0.453325,
                -0.117638,
                0.27316,
                0.332519,
                0.0727004,
                -0.397032,
                1.045,
                -0.589198,
                -0.32121,
                0.186742,
                0.380119,
                -0.408489,
                0.304922,
                -0.16923,
                0.892271,
                -0.0590751,
                -0.688585,
                -0.0114749,
                -0.107095,
                -0.219359,
                -0.397804,
                0.395574,
                0.0185079,
                -0.0915586,
                -0.087454,
                0.216725,
                0.110327,
                -0.942328,
                -0.527331,
                0.198526,
                0.504659,
                0.0835257,
                -0.263568,
                0.379191,
                0.0665046,
                -1.50237,
                0.960564,
                0.854905,
                0.0878695,
                0.527121,
                0.198549,
                -0.329639,
                0.878436,
                -0.434128,
                -0.00699077,
                0.724431,
                -0.133329,
                0.322116,
                0.442468,
                0.839756,
                -0.989534,
                -0.298284,
                0.0861451,
                0.150483,
                0.00585134,
                -0.00914345,
                0.402694,
                0.311538,
                0.162173,
                -0.237575,
                0.168736,
                -0.375235,
                -0.186921,
                -1.12209,
                -0.628917,
                -0.71098,
                -1.23807,
                0.589613,
                -0.0993895,
                0.209822,
                0.0668355,
                -0.367837,
                0.870784,
                0.0739058,
                0.27462,
                1.4361,
                -0.206216,
                0.109108,
                0.813804,
                0.0966967,
                -0.00639584,
                0.586802,
                -0.137352,
                -0.397772,
                -0.0466039,
                -0.191977,
                -0.989297,
                0.548826,
                0.170189,
                -0.204343,
                0.076635,
                0.126388,
                0.249263,
                0.4863,
                -0.331556,
                -0.154832,
                -0.137048,
                -0.783084,
                -0.154172,
                -0.934377,
                0.194142,
                -0.394101,
                -1.03134,
                0.752313,
                0.810621,
                -1.15759,
                -0.111097,
                -0.639728,
                0.258382,
                0.29654,
                -0.0128572,
                1.59223,
                -0.510264,
                0.0738886,
                -0.247055,
                -0.319967,
                1.58367,
                -0.872126,
                -0.163147,
                -0.219772,
                0.43736,
                -0.500246,
                -0.718383,
                0.353718,
                0.0936405,
                0.792496,
                0.282693,
                0.18388,
                0.399906,
                -0.341974,
                0.401341,
                -0.013514,
                -0.636597,
                -0.729754,
                -0.215045,
                0.253002,
                0.0523565,
                -1.33082,
                -0.293207,
                0.194303,
                -0.258832,
                0.346148,
                -0.0362397,
                -0.297918,
                -0.455932,
                1.35599,
                0.383971,
                0.609908,
                0.31561,
                0.11534,
                0.39917,
                -0.00368426,
                1.0963,
                -0.284549,
                0.0425825,
                0.996734,
                -0.422445,
                -0.0359439,
                -0.157815,
                -0.355089,
                0.169428,
                0.28507,
                -0.750167,
                0.254632,
                -0.248493,
                -1.04892,
                -0.0541325,
                0.5248,
                -0.66916,
                -0.606205,
                0.525038,
                -0.531596,
                -0.279166,
                1.61337,
                -1.89856,
                -0.23753,
                -0.47754,
                0.0218755,
                -0.0913083,
                -0.912962,
                1.08102,
                -0.238013,
                -0.221888,
                0.583909,
                0.235872,
                -0.56553,
                -1.75954,
                0.789503,
                -0.300632,
                -1.02347,
                -1.15767,
                0.974381,
                -0.788087,
                0.204683,
                -0.162681,
                0.337205,
                -0.325268,
                0.467138,
                0.663935,
                -0.35119,
                -0.177637,
                0.266028,
                0.133283,
                -0.116267,
                -1.24143,
                -0.30958,
                0.665674,
                -0.452225,
                0.720744,
                -1.45453,
                1.38983,
                0.854504,
                1.84953,
                1.06477,
                0.0876875,
                -0.691421,
                0.550525,
                -0.37352,
                0.532724,
                1.02186,
                -0.0487654,
                0.123567,
                0.10815,
                0.671879,
                0.406487,
                0.0199038,
                -0.716803,
                0.468941,
                -0.168822,
                -0.37863,
                0.290411,
                0.07247,
                -0.0423352,
                -0.110325,
                0.29949,
                0.210491,
                -0.115544,
                -1.27125,
                -0.190469,
                -0.291209,
                -0.644957,
                0.756028,
                -0.136342,
                -1.36506,
                -0.0643596,
                0.565199,
                1.12631,
                0.582394,
                -0.0133672,
                -1.18315,
                0.375753,
                0.756626,
                -1.13341,
                0.605727,
                -0.034504,
                -0.0886542,
                0.932688,
                -0.191731,
                -2.04459,
                0.367764,
                0.0820596,
                1.02424,
                0.0931848,
                -0.544598,
                0.143059,
                0.410558,
                -0.171928,
                -0.577118,
                0.496915,
                -0.304418,
                -0.56737,
                0.125402,
                0.976561,
                0.587826,
                0.416382,
                -0.164875,
                0.0557593,
                0.0271831,
                0.751754,
                0.669201,
                -0.783421,
                1.23375,
                0.745541,
                -0.122941,
                -2.34431,
                -1.47525,
                -0.117942,
                -0.150091,
                -0.461459,
                1.11194,
                0.227648,
                0.157128,
                -0.00877145,
                0.271886,
                -0.536343,
                0.128436,
                0.584059,
                -0.0286962,
                0.136214,
                0.348782,
                0.353526,
                0.0196079,
                -0.584031,
                -0.412915,
                0.204629,
                0.0338709,
                0.25418,
                0.282853,
                0.323513,
                -0.324581,
                0.427344,
                0.17909,
                -0.132271,
                -0.261292,
                -0.164273,
                -0.205823,
                -0.867315,
                -0.381584,
                -0.189895,
                -0.204863,
                -0.380248,
                0.0552812,
                0.0937029,
                0.153997,
                -2.19653,
                1.21651,
                -1.24287,
                -2.34436,
                0.835476,
                0.739271,
                -0.0169436,
                -0.343238,
                1.97451,
                -0.232121,
                0.473606,
                0.381818,
                -0.294103,
                0.303353,
                0.473254,
                -0.16866,
                0.866136,
                0.589764,
                -0.139723,
                0.83369,
                0.776778,
                0.538103,
                0.245827,
                0.129385,
                0.413865,
                0.721151,
                1.41427,
                -0.794472,
                1.851,
                0.410069,
                -0.516589,
                -0.337907,
                -2.75682,
                -3.12692,
                -0.894074,
                -1.33378,
                -0.409219,
                -0.504435,
                0.415369,
                -1.46308,
                0.690797,
                -0.00529623,
                0.775621,
                -0.25794,
                0.537082,
                0.402828,
                0.676,
                0.629066,
                0.344182,
                1.32455,
                1.14668,
                1.29765,
                0.733588,
                1.09133,
                0.193695,
                0.669192,
                0.49264,
                -0.525547,
                0.184565,
                -0.125931,
                -0.177311,
                1.76123,
                0.929079,
                -1.71843,
                -0.997373,
                -0.768847,
                -1.93141,
                -1.95871,
                -0.277355,
                -0.853759,
                0.451676,
                -0.854866,
                0.273071,
                -0.167278,
                0.0976775,
                0.127064,
                -0.435892,
                0.369663,
                -0.460042,
                0.334431,
                0.142052,
                -0.389218,
                -0.0108365,
                -0.405439,
                0.0463516,
                -0.0811556,
                -0.345795,
                0.138229,
                0.100743,
                -0.0839641,
                -0.1396,
                0.21578,
                -0.0188546,
                0.259333,
                -0.0698638,
                -0.181602,
                -0.74074,
                -0.281818,
                0.162294,
                0.636321,
                -0.229231,
                1.05231,
                0.0358836,
                0.509799,
                0.285316,
                -0.455546,
                -0.69723,
                0.417003,
                0.639361,
                -1.27475,
                0.171396,
                1.7223,
                0.511284,
                -0.170152,
                -1.1287,
                0.0477992,
                1.18429,
                0.135836,
                0.181942,
                -0.615257,
                -0.0324622,
                -0.962535,
                -0.247157,
                -0.51263,
                0.455961,
                -0.567871,
                -0.281513,
                0.220727,
                0.205438,
                0.28626,
                -0.273572,
                0.0162961,
                -0.67341,
                -0.000508548,
                -0.538587,
                2.86332,
                -0.656646,
                -0.970858,
                -1.66705,
                0.882395,
                -0.20894,
                2.16139,
                -0.153599,
                0.084438,
                0.357193,
                0.196372,
                0.0243051,
                -0.770297,
                -0.397102,
                -0.555364,
                -0.45855,
                0.216106,
                0.204101,
                0.49566,
                0.484203,
                -0.250363,
                -0.108498,
                0.710914,
                0.117486,
                0.182487,
                -0.260984,
                -0.0491905,
                0.0786359,
                0.198356,
                -0.285888,
                0.0707909,
                0.241433,
                0.132801,
                0.437946,
                -0.827532,
                -0.712391,
                -0.334398,
                0.6745,
                -0.362764,
                1.20782,
                -0.000537327,
                -0.486753,
                -0.599366,
                -0.135251,
                0.642668,
                -0.36206,
                -0.334972,
                0.337038,
                -0.668845,
                0.0748774,
                -0.241856,
                0.411143,
                -0.167126,
                0.207872,
                -0.587162,
                -0.633766,
                0.108299,
                0.590245,
                -0.100478,
                0.201539,
                0.506822,
                0.253413,
                0.217901,
                -0.192228,
                0.153912,
                -0.753961,
                -0.361795,
                0.0790321,
                -0.0978801,
                0.290197,
                -0.526664,
                0.0407583,
                0.326158,
                -0.955714,
                0.926903,
                0.08171,
                -0.251731,
                0.746146,
                1.00459,
                0.176184,
                0.306832,
                0.230075,
                -0.708209,
                -0.343342,
                0.046057,
                0.0928724,
                0.0715335,
                -0.803951,
                0.479756,
                -0.372887,
                0.272847,
                0.260231,
                0.256978,
                -0.526896,
                -0.340687,
                0.0946664,
                0.591833,
                -0.250954,
                -0.867026,
                -0.55935,
                -0.156505,
                -0.056533,
                -0.530471,
                -0.244736,
                0.0364862,
                1.06269,
                -0.571448,
                0.327987,
                0.272107,
                -0.0303768,
                0.765036,
                -0.52596,
                -0.119343,
                1.27749,
                0.252981,
                -0.0968579,
                0.583285,
                -0.40246,
                -0.0133068,
                0.110514,
                -0.439807,
                0.191782,
                -0.0319131,
                0.447615,
                -0.746018,
                0.524422,
                -0.471248,
                -0.522574,
                -0.103452,
                -0.17285,
                0.453044,
                0.520526,
                -0.308549,
                0.0726118,
                -0.0853907,
                -0.551125,
                -0.113325,
                -0.545889,
                0.252648,
                -0.415175,
                -0.0278301,
                0.303167,
                -0.227238,
                0.241352,
                0.385627,
                -0.85209,
                -0.339284,
                0.381527,
                0.284221,
                -0.134807,
                1.5827,
                -0.18116,
                0.557752,
                -0.38176,
                0.657789,
                -0.0409371,
                -0.585139,
                -0.144546,
                -0.00861967,
                0.420011,
                0.0916151,
                0.753057,
                0.558274,
                -0.161264,
                -0.459562,
                -0.277961,
                0.527342,
                -0.398689,
                0.586413,
                0.257214,
                -0.223133,
                0.611004,
                -0.0637197,
                0.584492,
                -0.213939,
                0.170048,
                -0.108131,
                -0.454542,
                0.593256,
                -0.684581,
                -1.3683,
                -0.500018,
                0.408397,
                -0.18496,
                -0.0376879,
                0.058341,
                0.1102,
                -0.13941,
                0.907861,
                -0.982136,
                -0.973951,
                0.167346,
                -1.82565,
                -0.109569,
                0.287208,
                0.129544,
                -1.03187,
                -0.293898,
                0.205974,
                -0.19038,
                -0.846384,
                1.1573,
                -0.466935,
                -1.56696,
                0.586215,
                0.608981,
                -0.206662,
                0.515417,
                -0.118107,
                -0.27974,
                1.64617,
                0.0435851,
                0.579972,
                0.118379,
                -1.14845,
                0.734297,
                1.42994,
                -2.10866,
                0.748612,
                0.879752,
                -0.116389,
                1.37676,
                0.859103,
                0.310042,
                0.611343,
                0.653551,
                -0.0450174,
                0.115719,
                0.988721,
                0.156971,
                0.0727311,
                -0.154453,
                -0.64694,
                0.0525565,
                0.710022,
                -0.0608522,
                -0.732051,
                0.120137,
                -0.182122,
                0.462405,
                0.612726,
                -0.00611098,
                0.386895,
                0.0945843,
                -0.251882,
                0.0811511,
                -0.330637,
                0.222186,
                0.0274824,
                -0.313701,
                -0.920644,
                -0.254327,
                -0.341631,
                -0.357896,
                -0.0192931,
                -1.64147,
                0.405772,
                -0.196112,
                0.761608,
                0.264864,
                -1.12049,
                0.328442,
                -0.395747,
                -0.431891,
                -0.227421,
                -0.284592,
                -0.342419,
                -0.00552021,
                -0.589765,
                1.3169,
                0.00762052,
                0.487119,
                0.124011,
                -0.518997,
                -0.236354,
                -0.376634,
                -0.358502,
                -0.0475231,
                -0.220972,
                -0.237013,
                -0.33191,
                0.339407,
                -0.942183,
                -0.368314,
                0.197501,
                0.943404,
                0.0642187,
                -0.512857,
                -1.17794,
                1.61386,
                0.934344,
                0.189414,
                0.0233285,
                1.20816,
                0.268653,
                -0.673702,
                1.83062,
                -1.16124,
                -0.668185,
                0.160806,
                -1.23774,
                -0.203723,
                -1.3574,
                0.257384,
                0.243425,
                0.879463,
                0.571717,
                0.0133912,
                0.721654,
                0.652837,
                -1.09562,
                -1.12412,
                -0.238343,
                0.798704,
                0.0746575,
                0.660712,
                0.38457,
                0.257996,
                1.19106,
                0.217058,
                -0.256511,
                -0.610524,
                0.678076,
                0.215113,
                0.0765047,
                -0.569006,
                -0.958343,
                1.46278,
                -0.58778,
                -0.357568,
                -0.102688,
                -0.0320238,
                0.473158,
                -0.486891,
                0.102237,
                -0.088441,
                0.68749,
                0.111827,
                0.786088,
                -0.0781251,
                0.459604,
                0.481488,
                -0.0412008,
                -0.292695,
                0.638575,
                -0.546678,
                0.0977143,
                -0.643873,
                -0.166486,
                0.30057,
                -0.201832,
                -0.561763,
                0.0475855,
                0.642929,
                -0.153531,
                0.106101,
                -0.0298155,
                -0.664134,
                -0.158413,
                -0.0571608,
                0.477928,
                0.318245,
                0.229796,
                -1.04442,
                0.457109,
                -0.68938,
                -0.424513,
                -0.492422,
                0.269566,
                0.709034,
                0.996118,
                -0.00569554,
                0.938428,
                0.496264,
                -0.0862064,
                -0.87359,
                0.0139019,
                0.197447,
                -0.400794,
                -0.127504,
                -0.22038,
                -0.483474,
                -0.290782,
                -0.000413607,
                -0.24997,
                -0.13468,
                -0.283132,
                -0.722859,
                -0.537057,
                -0.199065,
                -0.527034,
                -0.36122,
                -0.119181,
                0.0286358,
                -0.85273,
                -0.0355122,
                -0.570527,
                0.34399,
                -0.451085,
                0.440002,
                0.737308,
                0.770975,
                1.63061,
                0.294525,
                -0.736495,
                0.196759,
                0.131965,
                -0.0926692,
                0.0927461,
                0.0570172,
                0.167945,
                -0.198713,
                -0.111807,
                -0.803174,
                0.502853,
                0.418019,
                -0.47931,
                -0.316289,
                -0.893454,
                0.241532,
                0.689477,
                0.099429,
                -0.104511,
                0.344814,
                0.162024,
                0.630126,
                -0.305054,
                0.288684,
                -0.34157,
                -0.727778,
                0.309102,
                -0.439252,
                0.477018,
                0.552963,
                -0.121541,
                0.178878,
                0.359118,
                0.451195,
                -0.374456,
                -0.507181,
                0.0931179,
                0.722227,
                -0.671247,
                0.142879,
                1.53623,
                0.875799,
                -0.92544,
                1.12493,
                -0.389903,
                0.649381,
                -0.409499,
                0.0103358,
                -0.196531,
                0.0800553,
                -0.5071,
                -0.0613042,
                -0.493404,
                0.116351,
                -0.567472,
                0.179267,
                0.0818496,
                0.0642256,
                0.476134,
                0.177569,
                0.309786,
                -0.124444,
                0.154696,
                0.762171,
                -0.645829,
                0.139413,
                -1.6402,
                -0.876576,
                -0.204461,
                -0.0469075,
                0.365406,
                0.140817,
                0.551963,
                0.114989,
                -1.29838,
                0.30644,
                -1.27583,
                0.151355,
                0.236766,
                0.691126,
                0.355647,
                -0.890408,
                0.310206,
                -0.400364,
                -0.785012,
                0.415747,
                0.310149,
                -0.846973,
                0.755976,
                0.0972696,
                0.117852,
                -0.0766853,
                0.169044,
                0.173794,
                1.17749,
                0.343221,
                -0.251281,
                -0.935306,
                -0.996258,
                0.102065,
                0.829721,
                -0.629615,
                -0.164757,
                -0.445839,
                0.460882,
                0.416639,
                0.120445,
                -0.344928,
                -0.0796256,
                -0.200248,
                0.697649,
                -0.241288,
                -0.977192,
                -0.0860478,
                -0.380246,
                -0.438063,
                0.250761,
                -0.404648,
                0.588909,
                0.274282,
                0.487688,
                0.330486,
                0.575547,
                0.435347,
                -0.465468,
                0.538667,
                0.186154,
                0.681892,
                0.151809,
                0.215349,
                0.503168,
                0.0618294,
                0.416495,
                -0.114208,
                -0.266131,
                0.811615,
                -0.327279,
                -0.373433,
                -0.875541,
                0.0841988,
                -0.981491,
                -0.0959518,
                0.24226,
                0.305858,
                -0.128714,
                0.0547821,
                0.486625,
                -0.124018,
                0.356701,
                -0.0336623,
                0.00955817,
                -0.588715,
                0.00323954,
                -0.409525,
                -0.478047,
                0.27852,
                -0.276131,
                -0.0793699,
                -0.20858,
                0.159734,
                0.0701885,
                -0.598233,
                -0.296411,
                -0.253227,
                0.032401,
                -0.282948,
                -0.22518,
                -0.0949895,
                -0.0999115,
                -0.334254,
                0.0168907,
                0.442211,
                0.423767,
                1.20227,
                0.107186,
                0.470673,
                -0.0813639,
                0.0620366,
                -0.897039,
                -0.404745,
                0.0907181,
                -0.167932,
                0.376119,
                -0.0992504,
                -0.04847,
                0.281693,
                -0.634179,
                -0.940329,
                0.321817,
                -0.734081,
                0.0531694,
                0.113641,
                -0.154538,
                0.628947,
                0.260953,
                0.302738,
                0.0178948,
                0.070639,
                0.433672,
                -0.00926651,
                0.0245635,
                0.114524,
                0.497113,
                0.0963528,
                0.217977,
                0.932811,
                -0.169485,
                0.873443,
                -0.920817,
                0.105478,
                -0.602812,
                -0.746076,
                -0.588689,
                -0.41141,
                1.17045,
                0.0974618,
                -1.82148,
                0.683001,
                -0.920787,
                -0.333848,
                -1.02877,
                -0.523491,
                0.144053,
                0.0830677,
                0.478032,
                -0.848718,
                -0.222294,
                -0.215579,
                1.20329,
                -0.00785318,
                0.37144,
                0.402765,
                0.253171,
                -0.0783406,
                0.299187,
                -0.15847,
                0.424656,
                -0.728228,
                0.942699,
                0.2582,
                -0.57698,
                0.455851,
                -0.218195,
                -0.0235557,
                0.766643,
                0.828721,
                -1.69419,
                2.35693,
                0.546396,
                0.359491,
                -1.22901,
                0.182762,
                -0.123551,
                0.280224,
                0.0166766,
                -0.533918,
                0.391499,
                -0.253787,
                0.986934,
                0.0468516,
                -0.371686,
                0.296911,
                0.169521,
                -0.248671,
                -0.273218,
                -0.218919,
                0.26279,
                -0.244821,
                0.821362,
                -0.254302,
                -0.447559,
                0.456319,
                -0.00613589,
                0.884669,
                -0.0777252,
                -0.0348289,
                -0.15272,
                -0.110949,
                -1.24914,
                -0.864049,
                1.14201,
                -0.540828,
                -0.590265,
                0.0276445,
                1.10616,
                0.510507,
                -1.00497,
                0.00193999,
                0.655287,
                -1.31755,
                1.03315,
                -0.167579,
                -0.831261,
                -0.270142,
                -0.492429,
                0.228675,
                0.066576,
                0.216819,
                -0.154218,
                0.353421,
                0.0935573,
                0.471139,
                0.382041,
                0.943989,
                0.903757,
                0.171858,
                -0.0459711,
                0.688527,
                0.306075,
                -0.650819,
                0.566028,
                0.270227,
                0.445362,
                -0.718947,
                -0.216722,
                0.581538,
                1.53294,
                -0.409833,
                -1.41063,
                -0.267546,
                -1.29867,
                -0.64098,
                -0.27318,
                -0.821206,
                0.70267,
                0.433726,
                0.844194,
                -0.106479,
                -0.0744049,
                0.0224898,
                -0.51607,
                -0.192502,
                0.262031,
                -0.228636,
                1.07465,
                0.865116,
                0.148468,
                0.480473,
                -0.71104,
                -0.917099,
                0.0200039,
                0.52805,
                0.0627847,
                0.528932,
                0.143377,
                0.750827,
                0.929517,
                0.24945,
                -0.0813902,
                0.595655,
                -1.00639,
                -0.494004,
                -0.414509,
                -0.779728,
                -1.76918,
                -0.327758,
                -0.281208,
                0.605129,
                -0.42017,
                -0.174115,
                -0.235164,
                0.763412,
                -0.394965,
                0.0564704,
                0.199024,
                0.00575058,
                0.197854,
                -0.192031,
                0.183793,
                0.0603663,
                -0.0195088,
                -0.114241,
                0.0738511,
                0.369636,
                0.430456,
                -0.73836,
                -0.385543,
                -0.470394,
                0.246738,
                0.106029,
                -0.0884612,
                -0.387892,
                0.601787,
                0.113916,
                -0.259082,
                -0.646302,
                -0.46963,
                -0.242362,
                -0.0170055,
                -0.597151,
                -0.0686307,
                0.29693,
                0.514753,
                -0.233697,
                0.481639,
                0.0749831,
                0.851492,
                -0.866878,
                0.407929,
                -0.30815,
                -0.271731,
                -0.0959153,
                -0.476636,
                0.419195,
                -0.683597,
                0.00315128,
                0.584329,
                -0.874015,
                -0.650847,
                0.469206,
                0.401251,
                -0.339405,
                -0.894749,
                -0.0773051,
                -0.0204785,
                0.666588,
                -0.222499,
                -0.174186,
                0.552147,
                0.0371795,
                0.235238,
                0.66622,
                -0.0403343,
                -0.834512,
                0.646843,
                1.32925,
                -0.54343,
                0.0209087,
                -0.306572,
                0.185502,
                0.171794,
                -0.735081,
                1.31717,
                -0.729728,
                1.63635,
                0.341473,
                -0.922016,
                0.828412,
                -1.43944,
                -0.712767,
                0.730958,
                -0.644748,
                0.664106,
                1.21642,
                -0.63227,
                -0.079494,
                0.331683,
                1.84319,
                0.186372,
                1.19721,
                0.279328,
                0.178707,
                0.119128,
                0.0466316,
                0.515043,
                -0.0686774,
                -1.42047,
                0.789548,
                -0.173971,
                0.628662,
                0.750214,
                -1.99953,
                -0.563725,
                -1.22955,
                -1.47481,
                -0.446853,
                -0.554083,
                0.984231,
                -0.941981,
                0.360448,
                -0.583454,
                -0.224386,
                0.566179,
                0.0195253,
                1.12637,
                0.461401,
                0.703691,
                0.847123,
                0.221249,
                -0.466493,
                0.420363,
                -0.735269,
                0.854083,
                1.03552,
                -0.571241,
                0.224098,
                -0.757947,
                -0.853863,
                -0.361159,
                -0.586301,
                -0.17926,
                -0.0133308,
                -0.628807,
                0.52649,
                -0.943323,
                -0.729226,
                0.434242,
                0.436267,
                -0.796075,
                1.33415,
                0.35806,
                -0.44276,
                -0.622257,
                0.881972,
                -1.34728,
                1.22141,
                -0.986304,
                -0.518104,
                1.85549,
                -0.223159,
                1.00935,
                -1.14583,
                -0.391274,
                0.544589,
                0.605507,
                -0.169029,
                -0.527881,
                -0.923344,
                -0.134527,
                1.43016,
                -0.709024,
                0.0202928,
                -0.656104,
                -1.21727,
                -0.263279,
                -0.901938,
                0.348363,
                -0.742937,
                -0.100064,
                1.585,
                -0.304079,
                0.313053,
                0.245746,
                -1.99137,
                0.374914,
                1.37696,
                0.560892,
                1.64641,
                -0.714643,
                -0.0198447,
                1.46995,
                -0.475024,
                -0.842588,
                -0.0185866,
                0.71377,
                -0.111465,
                0.00231404,
                0.577365,
                -0.567068,
                0.385903,
                0.115742,
                -0.540549,
                0.465746,
                -0.254465,
                -0.763099,
                0.153912,
                0.48843,
                0.15533,
                -0.414595,
                -0.399561,
                0.134734,
                0.296843,
                1.04755,
                -0.514173,
                0.566716,
                -0.155366,
                -0.68756,
                0.467427,
                -0.828894,
                -0.803046,
                0.556593,
                -0.359345,
                -0.0436119,
                0.14928,
                -0.261073,
                0.0562861,
                0.169954,
                0.384695,
                0.0933887,
                0.404487,
                -1.49877,
                0.0911823,
                0.134424,
                0.848051,
                -0.0484169,
                -1.19303,
                0.831735,
                0.888147,
                0.0201676,
                0.522467,
                0.291988,
                -1.09806,
                0.234737,
                -0.159313,
                0.497651,
                0.976926,
                0.107445,
                0.213124,
                0.0762819,
                0.448507,
                0.417883,
                -0.616051,
                0.680116,
                -0.152864,
                -1.51062,
                0.761977,
                0.233554,
                -0.699691,
                0.203452,
                -1.44167,
                -0.672733,
                -0.053349,
                0.735708,
                0.372684,
                -0.682148,
                0.0368811,
                0.554586,
                0.274494,
                -0.297882,
                -0.34035,
                -0.429676,
                0.627473,
                0.181293,
                0.036499,
                0.0607392,
                0.387632,
                -1.23679,
                -1.10392,
                0.0747891,
                0.413889,
                0.208666,
                -0.282679,
                -0.0166689,
                0.0974273,
                -0.557513,
                0.166418,
                0.152013,
                -0.10732,
                -0.426046,
                0.0280756,
                0.163383,
                -0.187427,
                0.628255,
                -0.403311,
                0.0477284,
                0.398033,
                0.86783,
                0.530218,
                0.475244,
                -1.07717,
                0.440371,
                -0.821802,
                -1.96619,
                0.503564,
                0.669503,
                0.0325296,
                -0.102103,
                1.05285,
                -0.549427,
                -0.687692,
                0.778346,
                -0.658813,
                1.28956,
                0.894274,
                0.68602,
                -0.0328445,
                -0.58859,
                -0.413633,
                -0.552699,
                -0.359299,
                0.155072,
                -0.349063,
                -0.397618,
                0.556867,
                0.786219,
                -0.731732,
                0.0492583,
                -0.336388,
                0.44625,
                -0.547403,
                -0.600085,
                0.613045,
                0.804227,
                -0.475785,
                1.19135,
                -1.32982,
                0.969783,
                0.302811,
                -1.75096,
                -1.20466,
                0.234539,
                0.0501214,
                0.399819,
                1.51578,
                -0.215593,
                0.104048,
                -0.78958,
                0.163862,
                0.0629482,
                -0.688863,
                0.563363,
                -0.0278582,
                0.258271,
                0.178173,
                -0.168803,
                0.51958,
                -0.725769,
                -0.0815489,
                0.0618997,
                -0.582386,
                1.05004,
                -0.053959,
                1.176,
                -0.667499,
                1.65927,
                -0.0557761,
                -0.6147,
                -0.788962,
                -0.0880348,
                -0.961171,
                -0.601508,
                1.95678,
                -0.292247,
                0.345428,
                2.55322,
                1.11059,
                0.739133,
                1.75122,
                0.230594,
                -1.96654,
                0.978806,
                0.984811,
                0.190217,
                -0.608258,
                -0.518397,
                -0.845289,
                -1.45462,
                0.623866,
                -1.11406,
                -2.23218,
                0.265227,
                -0.597186,
                0.506646,
                -0.70394,
                -0.824049,
                0.30359,
                -1.515,
                -0.487669,
                2.1684,
                -1.50075,
                0.641969,
                -1.06997,
                1.07379,
                0.0160345,
                0.242135,
                0.175421,
                -0.337349,
                -0.0701267,
                -0.610222,
                0.141964,
                0.643394,
                -0.219134,
                -0.0309421,
                -0.406602,
                -0.153228,
                0.508017,
                -0.253494,
                -0.237415,
                0.41819,
                -0.101944,
                -0.248092,
                -0.144597,
                0.0238859,
                0.0747554,
                0.378153,
                -0.0776165,
                -0.339112,
                0.571215,
                -0.107722,
                0.295882,
                -0.137594,
                -0.807513,
                0.266636,
                -0.299345,
                0.313129,
                -0.294605,
                0.00963529,
                0.705529,
                0.61625,
                0.042534,
                -0.187835,
                -0.184126,
                0.00616936,
                0.310541,
                0.29617,
                -0.135926,
                -0.894522,
                0.229148,
                -0.599595,
                -0.304183,
                0.270578,
                -0.324555,
                0.179732,
                -0.167349,
                -0.510997,
                -0.0670946,
                0.610627,
                0.348839,
                0.32721,
                0.0974808,
                0.0701032,
                0.18021,
                -0.158395,
                0.101054,
                -0.0648781,
                -0.0211893,
                0.0229752,
                0.238866,
                -0.0532536,
                0.0665151,
                -0.137305,
                0.516616,
                -0.358893,
                -0.45529,
                0.0358105,
                -0.658524,
                0.460685,
                0.0125827,
                0.594513,
                -0.314589,
                -0.0528142,
                0.0883025,
                -1.14408,
                0.0541182,
                -0.184168,
                -0.307056,
                -0.0122853,
                -0.0697664,
                -0.508268,
                0.590903,
                -0.379703,
                -0.119902,
                0.757494,
                -0.689144,
                0.632574,
                0.347705,
                0.549769,
                0.217117,
                0.0546515,
                0.500536,
                -0.345594,
                0.209938,
                0.453038,
                -0.0307394,
                0.15415,
                -0.394233,
                -0.903345,
                0.363838,
                0.0248964,
                0.0704655,
                -0.0622503,
                -0.307837,
                0.174298,
                -0.766879,
                0.132504,
                0.668421,
                0.703421,
                1.06594,
                1.385,
                -0.533766,
                -0.275583,
                -0.545562,
                -1.03332,
                -1.7244,
                -0.0727746,
                0.643512,
                -1.38836,
                0.137901,
                -0.326233,
                -1.10597,
                -0.326948,
                -0.0928947,
                -0.508037,
                -0.503555,
                -0.376695,
                0.0914527,
                -0.382942,
                -0.516955,
                0.868165,
                -0.265089,
                0.0804087,
                -0.797859,
                0.921234,
                0.430964,
                -0.245443,
                -0.619789,
                1.34506,
                2.35138,
                0.561433,
                0.327813,
                -0.947572,
                -1.1156,
                0.0664488,
                0.497853,
                -0.533514,
                -0.45929,
                1.0982,
                -0.101722,
                -0.488427,
                1.0516,
                -0.541544,
                -0.362119,
                1.37336,
                -0.0866286,
                0.757113,
                0.432308,
                -0.640453,
                0.479937,
                -0.207382,
                0.202351,
                0.199637,
                -0.169207,
                -1.6659,
                0.450131,
                -0.728611,
                -0.350592,
                0.895646,
                0.625695,
                -0.327532,
                -0.333109,
                0.355837,
                0.578251,
                -1.38485,
                -0.290022,
                0.0560744,
                0.173693,
                1.0756,
                -1.08244,
                1.2519,
                0.666539,
                -2.34877,
                0.357245,
                1.08282,
                0.544153,
                -0.223805,
                0.369924,
                0.447275,
                0.163057,
                -1.31795,
                0.189154,
                -0.524638,
                -0.598196,
                -0.94784,
                0.019048,
                0.306843,
                -0.23738,
                -0.885713,
                0.0122913,
                -0.329007,
                -0.133065,
                0.859073,
                1.16412,
                1.79528,
                1.10209,
                1.90821,
                -1.17192,
                0.920097,
                -1.77688,
                -2.79029,
                1.01977,
                -1.12143,
                -0.0580621,
                -0.4478,
                -0.331211,
                -0.224957,
                0.00161494,
                0.507388,
                0.318381,
                -0.135418,
                -0.59024,
                0.153804,
                -0.446287,
                -0.171018,
                -0.382963,
                0.368621,
                -0.555136,
                0.707495,
                -0.120324,
                0.24392,
                0.228554,
                0.0744011,
                0.335623,
                0.121959,
                -0.441427,
                -0.320318,
                0.117855,
                0.0529272,
                -0.451496,
                -0.237205,
                0.076826,
                -0.727987,
                0.147281,
                0.819115,
                -0.323863,
                0.0913857,
                0.126148,
                0.966832,
                -0.0897497,
                0.0187964,
                0.0741668,
                0.194207,
                0.0510647,
                1.1803,
                0.220782,
                0.0591418,
                -0.733217,
                0.0876369,
                0.322562,
                -0.828074,
                -0.0323954,
                0.21298,
                -0.18278,
                -0.543739,
                -0.359559,
                0.737592,
                -0.64349,
                -0.411309,
                0.0115777,
                0.213864,
                -0.282472,
                -0.580171,
                -0.129901,
                0.104332,
                0.251993,
                0.289511,
                -0.0762194,
                -0.491257,
                0.33284,
                0.558797,
                -0.28555,
                0.308256,
                0.0350087,
                0.477322,
                -0.16615,
                -0.265585,
                0.0144162,
                -0.353246,
                -0.332068,
                2.08194,
                0.687939,
                -0.430949,
                -0.655002,
                -0.376351,
                -0.115738,
                -0.00243397,
                -0.00867116,
                -0.455576,
                -0.393017,
                0.241096,
                -0.788929,
                0.124514,
                0.236501,
                0.390346,
                0.138267,
                -0.249744,
                0.11434,
                0.0644671,
                0.420173,
                -0.284995,
                -0.241223,
                -1.37259,
                -0.569446,
                0.761707,
                2.20604,
                -0.168333,
                -0.0545915,
                -0.40477,
                -0.752156,
                0.897815,
                -0.166401,
                0.310917,
                0.0768217,
                -0.441954,
                0.141362,
                -1.02983,
                1.19946,
                -0.22577,
                -0.16446,
                -0.0499406,
                -1.20298,
                0.341249,
                0.114721,
                -0.953361,
                0.598913,
                0.72123,
                -0.0217812,
                -0.54452,
                -0.0661779,
                -0.000129676,
                0.265359,
                -0.258302,
                0.0295888,
                0.294064,
                -0.0185774,
                0.00917835,
                -0.115818,
                0.348669,
                -0.187464,
                1.34941,
                -0.274823,
                0.0566396,
                0.570023,
                -0.306642,
                0.0681728,
                -0.534062,
                -0.473899,
                1.02246,
                1.5023,
                -0.610502,
                -0.487349,
                2.4274,
                0.543308,
                1.51357,
                0.437801,
                -0.33847,
                -1.45629,
                -0.105367,
                -0.333743,
                0.543254,
                0.124879,
                -0.243711,
                2.6016,
                -0.21036,
                -1.40463,
                -1.07934,
                -0.422781,
                -0.558935,
                -0.510411,
                1.3032,
                -0.468498,
                0.240185,
                -0.892955,
                0.0378311,
                -0.253077,
                -1.5398,
                -1.06934,
                1.14609,
                -1.77971,
                2.04463,
                -2.0957,
                1.40128,
                -0.132431,
                -0.412425,
                0.325442,
                0.10542,
                -0.237852,
                1.53655,
                -0.101303,
                1.61971,
                0.556603,
                -0.5346,
                -0.389873,
                0.187899,
                -1.24725,
                -0.183815,
                0.0168927,
                -0.639792,
                1.35781,
                -1.23535,
                -0.792732,
                0.532683,
                -0.161887,
                -0.167729,
                -0.122948,
                -0.432952,
                -0.505948,
                -0.740295,
                -0.191515,
                0.743739,
                0.592265,
                -0.294571,
                -2.09038,
                0.137006,
                0.290519,
                1.42794,
                0.820858,
                0.595203,
                -0.10405,
                -0.510813,
                -0.229956,
                0.313266,
                0.435558,
                0.459104,
                0.754956,
                0.323828,
                -0.801165,
                -0.311805,
                -0.560667,
                -0.0749403,
                0.349232,
                -0.238995,
                -0.306722,
                -0.0486303,
                -0.42493,
                -0.191868,
                1.16788,
                -0.466958,
                -0.0547187,
                -0.751909,
                -0.42672,
                -0.0329783,
                -0.170902,
                0.14574,
                -0.3943,
                0.457828,
                0.0673484,
                2.18523,
                0.789674,
                -1.29168,
                -0.972675,
                0.624073,
                -0.617395,
                0.788201,
                -0.351987,
                0.691037,
                0.558454,
                0.894111,
                -0.0516361,
                -0.0585434,
                0.40632,
                0.183052,
                -0.124172,
                -0.295368,
                -0.621549,
                -0.274892,
                -0.1589,
                0.357005,
                -0.558002,
                0.027869,
                0.167496,
                -0.252275,
                -0.396189,
                -0.179425,
                0.246682,
                0.142155,
                -0.352139,
                0.560831,
                0.380591,
                -0.427166,
                -0.725386,
                -0.139194,
                0.601345,
                0.262437,
                -1.21671,
                0.717395,
                -0.453896,
                -0.161536,
                1.12788,
                -0.156419,
                -0.195733,
                -0.154602,
                0.00336055,
                0.193027,
                0.0869543,
                0.799615,
                -0.484425,
                -0.63585,
                -0.606839,
                0.38869,
                -0.285012,
                -0.410548,
                -0.0329177,
                -0.133497,
                -0.442433,
                0.748999,
                -0.195231,
                0.25918,
                0.254666,
                0.252135,
                0.0307521,
                0.12075,
                -0.070368,
                0.0407522,
                0.264962,
                0.0854283,
                0.0619074,
                -0.00983011,
                -0.00717883,
                -0.530026,
                0.00459288,
                0.0174184,
                0.489003,
                0.0679914,
                -0.327524,
                0.155272,
                0.422579,
                0.256562,
                0.405943,
                -0.0628685,
                0.0379441,
                0.171097,
                -0.296479,
                0.14174,
                -0.574979,
                0.355398,
                -0.21548,
                -0.365764,
                -0.310743,
                -0.691145,
                0.530329,
                -0.809098,
                0.469087,
                0.0116108,
                0.277652,
                -0.207543,
                0.223465,
                0.0792306,
                0.125157,
                -0.0162133,
                -0.0798126,
                -0.0111073,
                0.161399,
                -0.096819,
                -0.0410241,
                -0.0150545,
                0.391096,
                -0.697365,
                -0.0981436,
                -0.013448,
                0.0224262,
                0.289424,
                -0.319299,
                0.892381,
                -0.474612,
                -0.548217,
                0.831349,
                -1.38463,
                -0.313243,
                -0.184354,
                -0.747034,
                -0.269607,
                -1.08518,
                0.32071,
                0.256226,
                0.88313,
                -0.326871,
                0.300172,
                0.369511,
                -0.698322,
                0.053217,
                0.814934,
                0.0934147,
                0.21201,
                0.120135,
                -0.213512,
                0.101217,
                0.283789,
                0.153563,
                -0.0218035,
                -0.549359,
                1.68109,
                0.714858,
                0.308451,
                -0.311419,
                -1.24158,
                0.795699,
                -1.44453,
                -0.0709896,
                0.162972,
                0.189983,
                -0.608104,
                1.03947,
                1.32552,
                -0.595998,
                -0.629282,
                -0.899211,
                0.185656,
                -1.09137,
                -0.835106,
                -0.605768,
                -0.893156,
                0.529356,
                -0.244834,
                -0.32721,
                0.159679,
                -0.228575,
                0.349463,
                -0.093642,
                -0.0334523,
                -0.327047,
                0.0240373,
                -0.143741,
                0.110746,
                0.197903,
                0.0979938,
                -0.468341,
                0.840405,
                -2.26739,
                0.872195,
                0.69704,
                0.553333,
                1.29585,
                1.15158,
                0.240762,
                -0.220885,
                -0.332047,
                -0.106673,
                -0.626232,
                1.67429,
                -0.424893,
                0.695386,
                0.210922,
                0.188047,
                0.480005,
                -0.628387,
                0.283336,
                -0.694533,
                -0.348979,
                -0.338679,
                0.163472,
                0.56179,
                -0.0478339,
                0.0286907,
                0.0963052,
                -0.0640676,
                0.0295626,
                -0.626019,
                0.0691051,
                -0.477942,
                0.558874,
                -1.16957,
                -0.0603417,
                1.25029,
                0.855066,
                -0.0848559,
                -0.507039,
                1.31631,
                -0.317325,
                -1.2904,
                0.038803,
                0.324021,
                -0.0210723,
                0.123521,
                0.173609,
                -0.44893,
                -0.0591444,
                0.225555,
                -0.24814,
                -0.15386,
                1.47867,
                -1.25437,
                -0.768797,
                -0.546775,
                -0.429425,
                0.574306,
                -0.233587,
                0.689985,
                -0.0972265,
                0.52852,
                0.325454,
                -0.00312136,
                0.571776,
                -0.395893,
                0.560042,
                -0.920653,
                0.96548,
                -0.63891,
                -0.829388,
                0.937448,
                -0.810182,
                0.118169,
                1.95745,
                0.313858,
                -1.00385,
                -0.186332,
                -0.0197381,
                0.0189662,
                0.395101,
                -0.199415,
                0.0974239,
                0.770654,
                0.178935,
                -0.319572,
                0.219589,
                0.0912922,
                0.0202777,
                -0.302204,
                -0.462711,
                -0.069302,
                0.0193008,
                -0.153259,
                -0.0455719,
                0.153613,
                -0.172226,
                0.0370962,
                0.11937,
                0.0326671,
                0.294299,
                -0.0678013,
                0.00180911,
                -0.287834,
                -0.718401,
                0.29099,
                0.315159,
                0.537094,
                -0.406173,
                0.0389649,
                0.0751167,
                -0.350639,
                -0.215046,
                0.248832,
                0.816778,
                -1.11292,
                -0.811224,
                -0.706706,
                0.829801,
                -1.87998,
                0.116386,
                -1.07401,
                0.293972,
                0.294309,
                1.45978,
                -0.520445,
                -0.0557973,
                0.49589,
                -0.308659,
                0.544277,
                0.0988104,
                1.11075,
                -0.149365,
                -0.0702789,
                -0.11422,
                0.605167,
                0.184131,
                0.566764,
                0.843568,
                0.11222,
                -0.499973,
                1.70443,
                -0.376464,
                -1.14531,
                -0.132365,
                0.860081,
                1.03167,
                -1.1067,
                -1.22398,
                -0.894257,
                0.265322,
                -0.878287,
                -0.0551427,
                0.574591,
                -0.0162525,
                -0.21621,
                1.00013,
                -1.1206,
                -1.93546,
                0.608039,
                -0.845388,
                0.57632,
                -0.502916,
                0.443419,
                0.297975,
                0.37796,
                0.254649,
                -1.06366,
                0.567672,
                0.599892,
                0.691041,
                -0.00719223,
                0.266236,
                1.37367,
                0.477658,
                -0.400568,
                -0.0927341,
                -0.316952,
                -0.38376,
                -0.902582,
                1.984,
                -1.98282,
                0.0134088,
                1.99041,
                -0.367033,
                -0.87361,
                0.169821,
                -0.627549,
                0.141755,
                0.149556,
                0.127313,
                0.282397,
                -0.291525,
                -0.180151,
                0.480149,
                -0.00705956,
                0.270744,
                -0.232019,
                0.0785143,
                -0.047511,
                -0.386481,
                -0.0727125,
                -0.741484,
                0.125536,
                0.0669801,
                0.208297,
                -0.100154,
                0.237776,
                0.145139,
                0.194226,
                0.132018,
                -0.0118712,
                0.102564,
                0.00505264,
                -0.229399,
                -0.2797,
                -0.408355,
                0.230087,
                -0.196828,
                0.275228,
                0.610787,
                -0.220344,
                -0.0833788,
                -0.401752,
                0.678212,
                0.453251,
                0.554246,
                1.62574,
                -0.578113,
                -0.425456,
                -0.170265,
                0.12871,
                -0.746362,
                0.0807477,
                -0.412259,
                -0.726648,
                -0.866474,
                -0.898084,
                -0.841082,
                0.481906,
                -0.408588,
                -0.357083,
                -0.281216,
                -0.0454662,
                0.359465,
                -0.499916,
                -0.162427,
                -0.196115,
                0.312495,
                0.387042,
                -0.253661,
                0.250653,
                0.289314,
                0.265946,
                1.24932,
                0.022624,
                0.502007,
                0.262433,
                -0.197993,
                -0.430434,
                0.0171201,
                -0.7008,
                0.810528,
                0.638766,
                -0.811152,
                0.278801,
                -0.226479,
                0.111358,
                0.953134,
                0.00997017,
                0.21639,
                0.47937,
                0.570253,
                0.249421,
                0.400825,
                0.420614,
                -0.605122,
                0.186199,
                0.55184,
                0.12613,
                -0.26884,
                -0.740455,
                -0.136197,
                0.276894,
                -0.433684,
                -0.249199,
                0.94321,
                0.113023,
                -0.987587,
                -0.452463,
                -1.42862,
                1.54426,
                0.62894,
                -1.79836,
                0.442061,
                -0.74169,
                -0.54339,
                -1.00462,
                0.577905,
                0.561413,
                0.748701,
                0.221952,
                -0.627988,
                0.203144,
                -1.27006,
                0.731697,
                -0.320487,
                0.46221,
                -0.704785,
                0.852618,
                -1.09908,
                -0.151254,
                0.361488,
                0.357376,
                -0.0260015,
                0.373974,
                0.750007,
                -0.356461,
                0.0788736,
                -0.0597898,
                -0.0276461,
                0.422727,
                -0.0938317,
                -1.34478,
                0.596986,
                0.835761,
                1.3283,
                0.269344,
                -0.751063,
                -0.893542,
                -0.386828,
                1.06082,
                1.21961,
                0.949954,
                -0.0159667,
                -1.74358,
                0.437123,
                -0.940046,
                1.16924,
                -0.563404,
                -0.886923,
                0.215598,
                0.840337,
                -1.23063,
                0.568418,
                -1.42459,
                0.324924,
                -1.5745,
                -0.337332,
                -0.623575,
                -0.95183,
                -0.982309,
                0.220442,
                1.1042,
                -0.598552,
                -0.0742309,
                0.091367,
                0.281587,
                0.380638,
                1.29033,
                0.797711,
                1.691,
                -0.564377,
                -0.762947,
                -1.03179,
                1.58722,
                -0.116214,
                -0.260477,
                0.21486,
                0.0103625,
                0.0487758,
                0.0815645,
                -0.0714652,
                -0.158091,
                -0.337011,
                0.0370967,
                0.607113,
                -0.0570484,
                0.00739986,
                -0.151677,
                0.0168587,
                0.191969,
                0.147987,
                0.251988,
                0.355844,
                0.139616,
                -0.159283,
                -0.190314,
                0.0831611,
                -0.139102,
                0.106807,
                -0.202804,
                -0.0546155,
                -0.250811,
                0.236483,
                -0.173053,
                0.327149,
                -0.213053,
                -0.103047,
                -0.11024,
                -0.353848,
                -0.285581,
                -0.225526,
                -0.185949,
                -0.209414,
                -0.177981,
                0.0334463,
                -0.552307,
                -0.087119,
                -0.0583715,
                -0.348507,
                0.166005,
                0.978499,
                -0.176011,
